<?xml version="1.0"?>
<opencv_storage>
<my_svm type_id="opencv-ml-svm">
  <svm_type>C_SVC</svm_type>
  <kernel><type>RBF</type>
    <gamma>5.0625000000000009e-01</gamma></kernel>
  <C>3.1250000000000000e+02</C>
  <term_criteria><epsilon>1.1920928955078125e-07</epsilon>
    <iterations>1000</iterations></term_criteria>
  <var_all>800</var_all>
  <var_count>800</var_count>
  <class_count>10</class_count>
  <class_labels type_id="opencv-matrix">
    <rows>1</rows>
    <cols>10</cols>
    <dt>i</dt>
    <data>
      0 1 2 3 4 5 6 7 8 9</data></class_labels>
  <sv_total>443</sv_total>
  <support_vectors>
    <_>
      0. 0. 5.48245618e-04 0. 0. 0. 0. 0. 0. 0. 0. 0. 0. 4.38596494e-03
      0. 0. 0. 0. 0. 8.22368450e-03 0. 0. 0. 1.09649124e-03 0. 0. 0. 0.
      0. 0. 0. 1.09649124e-03 5.48245618e-04 0. 0. 5.48245618e-04 0. 0.
      0. 1.86403506e-02 5.48245618e-03 1.09649124e-03 0. 1.64473685e-03
      0. 2.19298247e-03 0. 4.38596494e-03 9.86842066e-03 0. 0.
      2.19298247e-03 0. 0. 5.48245618e-04 0. 0. 0. 7.12719280e-03
      1.64473685e-03 2.30263155e-02 0. 0. 0. 0. 0. 0. 1.09649124e-03 0.
      0. 0. 0. 8.22368450e-03 0. 1.64473685e-03 0. 0. 0. 0. 0. 0.
      5.48245618e-04 0. 0. 0. 0. 3.28947371e-03 0. 0. 2.19298247e-03 0.
      1.64473685e-03 4.93421033e-03 0. 1.09649124e-03 0. 0. 0. 0. 0.
      1.09649124e-03 0. 0. 0. 0. 0. 0. 0. 0. 0. 0. 2.74122809e-03 0.
      5.48245618e-04 2.74122809e-03 0. 0. 0. 0. 0. 0. 2.74122809e-03 0.
      0. 2.74122809e-03 0. 0. 0. 0. 0. 1.09649124e-03 0. 8.22368450e-03
      0. 0. 0. 0. 0. 0. 3.83771933e-03 0. 5.48245618e-04 0. 0. 0. 0. 0.
      5.48245618e-04 0. 0. 2.08333340e-02 0. 4.38596494e-03 0. 0. 0. 0.
      0. 0. 0. 0. 0. 0. 0. 1.09649124e-02 0. 0. 0. 0. 0. 0. 0. 0. 0. 0.
      0. 0. 0. 4.38596494e-03 2.74122809e-03 0. 4.38596494e-03 0. 0. 0.
      1.64473685e-03 0. 0. 5.48245618e-04 3.28947371e-03 0.
      6.57894742e-03 3.83771933e-03 0. 0. 0. 0. 0. 0. 0. 0. 0. 0. 0. 0.
      7.12719280e-03 6.03070203e-03 0. 0. 0. 0. 1.09649124e-03 0. 0.
      6.03070203e-03 9.86842066e-03 0. 0. 0. 0. 0. 5.48245618e-04 0. 0.
      0. 0. 1.09649124e-03 0. 0. 0. 0. 0. 0. 0. 0. 0. 0. 0.
      7.67543865e-03 0. 1.09649124e-03 0. 0. 5.48245618e-04 0. 0.
      1.09649124e-03 0. 0. 0. 0. 0. 6.57894742e-03 0. 0. 0. 0. 0. 0. 0.
      0. 0. 3.83771933e-03 0. 0. 0. 0. 1.09649124e-03 1.64473685e-03 0.
      1.09649124e-03 0. 0. 0. 0. 0. 0. 0. 0. 0. 0. 0. 0. 0. 0.
      2.52192989e-02 0. 0. 0. 0. 0. 0. 2.74122809e-03 0. 3.28947371e-03
      2.19298247e-03 0. 0. 0. 0. 0. 1.64473685e-03 5.48245618e-04 0. 0.
      0. 0. 0. 5.48245618e-04 1.09649124e-03 0. 0. 2.52192989e-02 0. 0.
      2.74122809e-03 0. 5.48245618e-04 1.09649124e-03 0. 0. 0. 0. 0. 0.
      0. 0. 2.19298247e-03 1.64473685e-03 9.86842066e-03 0.
      5.48245618e-04 0. 0. 0. 0. 0. 0. 0. 0. 0. 0. 0. 0. 0. 0. 0.
      2.24780701e-02 0. 7.12719280e-03 0. 0. 5.48245618e-04 0.
      5.48245618e-04 0. 0. 0. 1.64473685e-03 0. 0. 0. 0. 1.09649124e-03
      0. 0. 0. 0. 0. 0. 0. 0. 0. 5.48245618e-04 0. 0. 0. 0.
      2.74122809e-03 0. 0. 2.74122809e-03 5.48245618e-04 2.19298247e-02
      0. 0. 5.48245618e-03 2.19298247e-03 5.48245618e-04 0. 0. 0. 0. 0.
      1.64473685e-03 5.48245618e-04 1.09649124e-03 0. 2.74122809e-03 0.
      0. 0. 0. 2.19298247e-03 0. 0. 0. 0. 0. 0. 0. 0. 0. 0. 0. 0. 0. 0.
      0. 0. 0. 6.03070203e-03 0. 5.48245618e-04 0. 0. 0. 0.
      1.09649124e-03 5.48245618e-04 0. 0. 2.19298247e-03 0. 0.
      1.09649124e-03 0. 0. 0. 4.93421033e-03 9.86842066e-03 0. 0. 0. 0.
      0. 0. 0. 1.53508773e-02 0. 5.48245618e-04 0. 1.09649124e-03 0. 0.
      0. 0. 0. 2.24780701e-02 0. 0. 0. 0. 0. 0. 3.01535092e-02 0.
      5.48245618e-04 4.93421033e-03 3.83771933e-03 0. 0. 0. 0.
      8.77192989e-03 1.09649124e-03 0. 0. 0. 0. 4.93421033e-03
      5.48245618e-04 0. 0. 0. 0. 0. 0. 0. 0. 0. 0. 0. 0. 0. 0. 0.
      2.19298247e-03 0. 0. 0. 5.48245618e-04 0. 4.38596494e-03
      2.19298247e-02 0. 6.03070203e-03 0. 0. 0. 0. 0. 0. 0. 0.
      5.48245618e-04 0. 0. 0. 0. 0. 0. 0. 0. 0. 0. 0. 0. 0. 0. 0. 0. 0.
      0. 0. 0. 0. 5.48245618e-04 1.09649124e-03 0. 0. 0. 2.79605258e-02
      0. 0. 5.48245618e-04 0. 0. 0. 0. 0. 0. 0. 0. 2.19298247e-03
      1.42543856e-02 0. 0. 0. 0. 0. 0. 0. 0. 0. 0. 0. 0. 0.
      1.64473685e-03 0. 0. 0. 0. 0. 0. 0. 0. 0. 4.93421033e-03 0. 0.
      6.63377196e-02 0. 0. 0. 0. 0. 0. 0. 0. 0. 0. 0. 0. 0. 0. 0. 0. 0.
      0. 0. 0. 1.69956144e-02 0. 0. 0. 0. 0. 0. 0. 4.38596494e-03 0.
      9.86842066e-03 0. 0. 0. 5.48245618e-04 0. 3.28947371e-03 0. 0. 0.
      0. 0. 0. 0. 0. 0. 0. 0. 0. 5.48245618e-04 0. 0. 0. 0.
      2.74122809e-03 0. 1.64473685e-03 0. 0. 0. 0. 0. 0. 1.64473685e-03
      2.63157897e-02 0. 0. 1.37061402e-02 1.64473685e-03 1.64473685e-03
      0. 0. 0. 1.09649124e-03 0. 0. 0. 0. 0. 0. 1.09649124e-02 0. 0. 0.
      0. 0. 0. 0. 0. 3.83771933e-03 0. 1.64473685e-03 7.29166642e-02 0.
      0. 0. 0. 1.09649124e-03 0. 0. 0. 0. 3.72807011e-02 0.
      1.64473685e-03 0. 0. 0. 0. 0. 0. 0. 0. 0. 0. 5.48245618e-04
      5.48245618e-04 0. 0. 0. 0. 0. 0. 0. 5.48245618e-04 5.48245618e-04
      0. 1.09649124e-03 1.64473685e-03 2.74122809e-03 1.42543856e-02 0.
      0. 0. 2.74122809e-03 0. 0. 0. 0. 0. 0. 0. 0. 0. 0. 5.48245618e-03
      0. 0. 0. 0. 0. 0. 0. 5.48245618e-04 8.22368450e-03 0.
      3.83771933e-03 0. 0. 1.04166670e-02 2.19298247e-03 0. 0.
      5.48245618e-03 0. 0. 0. 0. 0. 0. 0. 0. 0. 0. 6.03070203e-03
      5.48245618e-04 0. 3.28947371e-03 0. 0. 0. 5.48245618e-03 0. 0. 0.
      0. 5.48245618e-04 0. 0. 0. 0. 0. 0. 0. 0. 5.48245618e-04 0. 0.
      3.83771933e-03 0. 0. 0. 0. 0. 0. 0. 0. 0. 0. 0. 0. 0.
      2.19298247e-03 0. 0. 0. 0.</_>
    <_>
      8.36820109e-04 0. 0. 0. 2.51046033e-03 5.02092065e-03
      4.18410054e-04 0. 0. 0. 5.43933082e-03 0. 0. 6.69456087e-03
      4.18410054e-04 0. 0. 0. 0. 4.18410054e-04 0. 0. 0. 0. 0. 0. 0. 0.
      1.25523016e-03 0. 1.67364022e-03 4.18410054e-04 0. 0. 0. 0.
      1.67364022e-03 0. 0. 3.68200839e-02 0. 1.67364022e-03 0.
      3.76569061e-03 0. 0. 0. 5.02092065e-03 5.85774053e-03 0. 0. 0.
      1.25523016e-03 4.18410054e-04 1.46443518e-02 0. 0. 0. 0.
      1.67364022e-03 1.67364022e-03 0. 0. 0. 4.18410054e-04
      4.18410054e-04 0. 4.60251048e-03 0. 4.18410054e-04 2.92887026e-03
      0. 0. 0. 4.18410054e-04 1.67364022e-03 0. 0. 8.36820109e-04
      4.18410054e-04 4.18410054e-04 0. 0. 1.25523016e-03 0.
      4.18410054e-04 0. 8.36820109e-04 0. 4.18410078e-03 4.18410054e-04
      8.36820109e-04 0. 0. 3.76569061e-03 4.18410054e-04 0. 0.
      1.67364022e-03 0. 1.08786616e-02 3.76569061e-03 0. 0.
      1.25523016e-03 0. 0. 0. 0. 1.67364022e-03 0. 1.67364022e-03
      4.18410054e-04 0. 0. 0. 0. 0. 0. 0. 0. 4.18410054e-04
      2.51046033e-03 0. 4.18410054e-04 2.09205039e-03 0. 0. 0.
      1.67364022e-03 8.36820109e-04 4.18410054e-04 2.92887026e-03
      1.17154811e-02 4.18410054e-04 0. 4.18410054e-04 8.36820109e-04
      3.34728044e-03 2.09205039e-03 0. 0. 2.09205039e-03 0.
      4.18410054e-04 0. 0. 0. 6.69456087e-03 0. 8.36820109e-04 0.
      4.18410054e-04 0. 4.60251048e-03 4.18410054e-04 3.34728044e-03 0.
      0. 4.18410054e-04 0. 1.25523016e-03 0. 1.04602510e-02 0. 0. 0. 0.
      8.36820109e-04 0. 0. 8.36820109e-04 8.36820109e-04 0.
      4.18410054e-04 0. 2.09205039e-03 1.25523016e-03 4.18410054e-04
      2.09205039e-03 0. 5.85774053e-03 0. 2.51046033e-03 0. 0. 0. 0. 0.
      3.76569061e-03 0. 7.53138121e-03 5.02092065e-03 2.51046033e-03 0.
      0. 3.76569061e-03 0. 0. 4.18410054e-04 0. 4.18410054e-04
      4.18410054e-04 0. 4.18410054e-04 0. 1.25523016e-03 0. 0.
      8.36820109e-04 0. 7.53138121e-03 0. 0. 4.18410054e-04
      4.18410054e-04 0. 4.18410054e-04 0. 0. 0. 8.36820109e-04 0. 0. 0.
      1.67364022e-03 0. 0. 0. 0. 0. 0. 0. 2.51046033e-03 0.
      4.18410054e-04 1.04602510e-02 7.53138121e-03 7.94979092e-03 0. 0.
      0. 0. 4.18410054e-04 4.18410054e-04 0. 4.60251048e-03
      1.67364022e-03 2.09205039e-03 0. 4.18410054e-04 2.92887026e-03 0.
      7.94979092e-03 1.25523016e-03 0. 0. 0. 0. 2.09205039e-03
      8.36820109e-04 0. 1.67364022e-03 0. 0. 4.18410054e-04 0. 0.
      8.36820109e-04 4.18410054e-04 0. 0. 0. 4.60251048e-03 0. 0.
      2.09205039e-03 0. 0. 8.36820109e-04 8.36820109e-04 0.
      4.18410054e-04 5.43933082e-03 0. 4.18410054e-04 0. 0. 0. 0.
      1.25523016e-03 0. 2.09205039e-03 0. 8.36820109e-04 0. 0.
      5.02092065e-03 4.18410054e-04 0. 7.53138121e-03 8.36820109e-04
      2.51046033e-03 0. 0. 0. 1.17154811e-02 2.92887026e-03
      4.18410054e-04 4.18410078e-03 4.18410054e-04 4.18410054e-04
      2.42677834e-02 0. 2.09205039e-03 4.18410054e-04 0. 0. 0. 0.
      8.36820155e-03 4.18410054e-04 4.18410054e-04 4.18410078e-03 0.
      8.36820109e-04 1.67364022e-03 8.36820109e-04 1.67364022e-03
      4.60251048e-03 1.25523016e-03 4.18410054e-04 0. 0. 0.
      1.25523016e-03 0. 7.94979092e-03 0. 4.18410054e-04 1.67364022e-03
      0. 0. 0. 0. 4.18410054e-04 8.36820109e-04 5.56485355e-02 0.
      1.25523016e-03 4.18410054e-04 6.69456087e-03 1.25523016e-03
      4.18410054e-04 2.92887026e-03 8.78661126e-03 0. 0. 4.18410054e-04
      0. 0. 4.18410054e-04 0. 0. 0. 0. 1.25523016e-03 2.51046033e-03 0.
      0. 9.62343160e-03 0. 0. 0. 0. 4.18410078e-03 0. 8.36820109e-04 0.
      1.25523016e-03 0. 6.69456087e-03 4.18410054e-04 9.62343160e-03 0.
      9.20502096e-03 0. 0. 0. 0. 4.18410078e-03 8.36820109e-04
      8.36820109e-04 0. 0. 0. 0. 0. 8.36820109e-04 4.18410054e-04 0. 0.
      2.09205039e-03 1.92468632e-02 1.25523016e-03 0. 0. 8.36820109e-04
      1.25523016e-03 0. 0. 4.18410054e-04 0. 8.36820109e-04 0. 0.
      4.18410054e-04 0. 0. 0. 8.36820109e-04 3.76569061e-03 0. 0.
      1.67364022e-03 0. 4.18410054e-04 0. 0. 8.36820109e-04 0.
      4.18410054e-04 0. 0. 0. 0. 1.25523016e-03 0. 0. 2.51046033e-03
      1.67364022e-03 0. 5.43933082e-03 0. 0. 0. 0. 4.18410054e-04
      1.25523016e-03 1.67364022e-03 8.36820109e-04 0. 3.34728044e-03 0.
      0. 0. 4.18410054e-04 4.18410054e-04 4.18410054e-04 0.
      2.51046033e-03 4.18410054e-04 0. 0. 1.67364022e-03 1.21338917e-02
      0. 2.09205039e-03 1.67364022e-03 4.18410054e-04 0. 0.
      6.27615070e-03 2.09205039e-03 2.51046033e-03 8.36820109e-04
      4.18410054e-04 0. 4.18410054e-04 8.36820109e-04 4.18410054e-04
      4.18410054e-04 4.18410054e-04 0. 0. 0. 0. 5.02092065e-03 0.
      4.18410054e-04 0. 0. 0. 0. 0. 0. 0. 0. 0. 4.18410078e-03 0.
      8.36820109e-04 0. 4.18410054e-04 2.92887026e-03 0. 2.09205039e-03
      0. 0. 2.09205039e-03 0. 0. 1.33891217e-02 2.92887026e-03
      4.18410054e-04 0. 0. 0. 1.67364022e-03 0. 0. 0. 0. 1.25523016e-03
      0. 3.34728044e-03 4.18410054e-04 0. 0. 3.34728044e-03 0.
      6.27615070e-03 8.36820109e-04 0. 0. 8.36820109e-04 0.
      8.36820109e-04 3.34728044e-03 0. 7.53138121e-03 0. 2.51046033e-03
      0. 0. 1.25523016e-03 0. 2.51046033e-03 4.18410054e-04 0. 0. 0. 0.
      1.67364022e-03 6.27615070e-03 3.34728044e-03 0. 0. 1.25523016e-03
      8.36820109e-04 1.25523016e-03 1.38075314e-02 0. 0. 1.67364022e-03
      8.36820109e-04 3.76569061e-03 4.18410054e-04 8.36820109e-04 0. 0.
      4.18410054e-04 0. 2.09205039e-03 0. 4.18410054e-04 0. 0. 0. 0. 0.
      0. 1.04602510e-02 0. 0. 0. 5.85774053e-03 0. 2.09205039e-03 0. 0.
      0. 0. 0. 8.36820109e-04 0. 8.36820109e-04 0. 0. 0. 1.25523016e-03
      0. 0. 8.78661126e-03 0. 4.18410054e-04 0. 0. 4.18410054e-04 0.
      1.67364022e-03 0. 4.18410054e-04 7.11297104e-03 0. 2.09205039e-03
      0. 0. 0. 0. 8.36820109e-04 4.18410054e-04 0. 0. 0. 2.09205039e-03
      4.18410054e-04 0. 0. 0. 0. 5.02092065e-03 0. 4.18410054e-04 0. 0.
      0. 1.25523016e-03 2.09205039e-03 4.18410078e-03 0. 0. 0.
      4.18410054e-04 0. 0. 0. 2.09205039e-03 0. 2.09205039e-03
      1.67364022e-03 0. 1.67364022e-03 0. 1.67364022e-03 8.36820109e-04
      2.09205039e-03 4.18410054e-04 1.67364022e-03 0. 8.36820109e-04 0.
      0. 0. 0. 0. 0. 0. 0. 0. 0. 4.18410054e-04 2.92887026e-03
      4.18410054e-04 1.25523016e-03 1.17154811e-02 8.36820109e-04 0. 0.
      0. 1.25523016e-03 0. 0. 0. 0. 1.63179915e-02 2.09205039e-03 0. 0.
      0. 0. 0. 0. 0. 0. 0. 1.67364022e-03 0. 4.18410054e-04
      3.76569061e-03 0. 7.53138121e-03 0. 0. 0. 5.02092065e-03
      1.25523016e-03 0. 0. 2.92887026e-03 0. 0. 0. 5.85774053e-03 0. 0.
      4.18410054e-04 1.67364022e-03 0. 0. 0. 0. 2.51046033e-03 0.
      4.18410054e-04 1.67364022e-03 0. 0. 3.34728044e-03 6.27615070e-03
      0. 2.09205039e-03 4.18410054e-04 2.92887026e-03 0. 8.36820109e-04
      0. 0. 0. 2.92887026e-03 3.76569061e-03 2.51046033e-03
      4.18410054e-04 0. 0. 0. 4.18410054e-04 0. 0. 2.92887026e-03 0. 0.
      0. 1.67364022e-03 0. 0. 8.36820109e-04 1.29707120e-02
      1.12970714e-02 0. 4.60251048e-03 0. 0. 0. 0. 4.18410054e-04 0.
      1.25523016e-03 0. 0. 0. 4.18410054e-04 0. 1.25523016e-03
      3.34728044e-03 0. 1.25523016e-03 0. 1.25523016e-03 2.09205039e-03
      0. 2.51046033e-03 0. 0. 1.25523016e-03 0. 0. 8.36820109e-04 0. 0.
      2.92887026e-03 1.67364022e-03 0. 0. 0. 1.67364022e-03
      1.25523016e-03 0. 0. 1.25523016e-03</_>
    <_>
      0. 0. 0. 0. 3.59841681e-04 0. 0. 0. 0. 0. 0. 0. 0. 3.95825831e-03
      0. 0. 0. 0. 0. 0. 7.19683361e-04 0. 1.07952510e-03 0. 0. 0. 0.
      2.15905020e-03 0. 1.43936672e-03 0. 0. 3.59841681e-04 0. 0.
      7.19683361e-04 0. 0. 0. 7.55667547e-03 0. 1.43936672e-03 0.
      3.59841681e-04 0. 6.47715013e-03 0. 4.31810040e-03 9.71572567e-03
      0. 0. 2.37495508e-02 3.59841681e-04 7.55667547e-03 0. 0. 0. 0.
      3.59841681e-04 5.39762527e-03 2.69881263e-02 0. 3.59841681e-04
      3.59841681e-04 0. 0. 0. 2.87873344e-03 1.07952510e-03
      3.59841681e-04 3.23857507e-03 0. 0. 7.19683361e-04 1.43936672e-03
      0. 0. 0. 2.51889182e-03 3.59841681e-04 0. 2.87873344e-03 0. 0. 0.
      0. 0. 7.19683361e-04 0. 8.27635825e-03 3.59841669e-03
      2.15905020e-03 0. 2.87873344e-03 1.07952510e-03 0. 6.83699176e-03
      0. 0. 0. 1.18747754e-02 0. 0. 0. 2.15905020e-03 0. 0.
      7.19683361e-04 0. 0. 0. 7.19683361e-04 0. 0. 0. 7.19683361e-04 0.
      0. 0. 0. 0. 0. 0. 5.75746689e-03 3.59841681e-04 2.87873344e-03 0.
      0. 0. 0. 7.19683361e-04 1.43936672e-03 2.84274928e-02 0. 0. 0. 0.
      0. 0. 7.19683361e-04 0. 0. 1.79920834e-03 3.59841681e-04 0. 0. 0.
      1.43936672e-03 3.59841681e-04 0. 2.51889182e-03 5.75746689e-03
      8.63620080e-03 0. 3.59841681e-04 0. 0. 0. 1.43936672e-03 0. 0. 0.
      0. 0. 0. 0. 0. 0. 0. 0. 0. 0. 7.19683361e-04 0. 1.43936672e-03 0.
      3.59841681e-04 0. 0. 1.07952510e-03 1.07952510e-03 1.87117681e-02
      1.07952510e-03 0. 0. 7.19683361e-04 0. 0. 0. 2.15905020e-03 0.
      8.63620080e-03 2.87873344e-03 0. 3.59841681e-04 0. 0. 0. 0. 0. 0.
      0. 0. 0. 0. 0. 0. 0. 0. 3.59841681e-04 0. 7.19683361e-04 0.
      3.59841681e-04 0. 7.19683338e-03 0. 0. 0. 0. 0. 0. 0.
      1.07952510e-03 0. 0. 0. 0. 0. 0. 7.19683361e-04 0. 0. 0. 0.
      1.07952510e-03 7.55667547e-03 0. 1.43936672e-03 0. 0. 0. 0.
      3.59841681e-04 0. 0. 7.19683361e-04 0. 0. 1.79920834e-03 0.
      1.07952510e-03 4.67794202e-03 1.07952510e-03 1.07952510e-03 0. 0.
      0. 3.59841681e-04 0. 0. 0. 1.51133509e-02 0. 9.71572567e-03 0. 0.
      0. 1.07952510e-03 0. 0. 0. 0. 7.19683361e-04 5.39762527e-03 0. 0.
      0. 0. 0. 1.43936672e-03 0. 3.59841681e-04 0. 0. 3.23857507e-03 0.
      0. 0. 0. 1.43936672e-03 0. 2.87873344e-03 0. 2.15905020e-03
      2.51889182e-03 0. 0. 0. 0. 0. 0. 7.19683361e-04 7.55667547e-03 0.
      0. 7.19683361e-04 0. 7.19683361e-04 1.07952510e-03 0. 0.
      9.35588405e-03 0. 0. 7.55667547e-03 2.15905020e-03 0.
      3.59841681e-04 7.19683361e-04 3.59841681e-04 7.19683361e-04 0.
      2.15905020e-03 2.87873344e-03 0. 0. 3.59841681e-04 5.75746689e-03
      2.15905020e-03 0. 7.19683361e-04 0. 0. 0. 0. 0. 6.83699176e-03
      7.19683361e-04 7.19683361e-04 0. 0. 0. 0. 1.07952510e-03 0.
      7.19683361e-04 4.31810040e-03 0. 2.51889182e-03 7.19683361e-04 0.
      0. 3.59841681e-04 7.19683361e-04 0. 0. 0. 1.79920834e-03 0. 0. 0.
      0. 1.43936672e-03 1.07952510e-03 0. 3.59841681e-04 0.
      3.59841681e-04 0. 3.59841681e-04 0. 0. 0. 0. 0. 0. 7.19683361e-04
      2.87873344e-03 3.59841681e-04 0. 3.59841681e-04 7.19683361e-04
      2.30298676e-02 7.19683361e-04 0. 7.19683361e-04 0. 0. 0. 0.
      5.03778365e-03 0. 0. 0. 0. 1.07952510e-03 0. 0. 1.07952510e-03 0.
      0. 0. 1.15149338e-02 0. 0. 0. 0. 3.95825831e-03 0. 3.95825831e-03
      0. 0. 0. 0. 0. 3.59841669e-03 0. 0. 0. 0. 1.43936672e-03 0. 0.
      3.59841681e-04 0. 0. 3.23857507e-03 3.95825831e-03 0.
      7.19683361e-04 7.19683361e-04 0. 0. 0. 7.19683361e-04 0. 0. 0.
      8.63620080e-03 0. 0. 0. 0. 0. 0. 0. 0. 8.63620080e-03 0. 0. 0. 0.
      0. 0. 0. 3.59841681e-04 3.59841681e-04 0. 0. 0. 0. 0. 0. 0.
      9.71572567e-03 0. 3.59841681e-04 3.59841681e-04 3.59841681e-04
      1.07952510e-03 0. 2.15905020e-03 7.19683361e-04 2.87873344e-03 0.
      0. 2.51889182e-03 0. 3.59841681e-04 1.79920834e-03 0.
      3.59841681e-04 0. 0. 0. 2.51889182e-03 0. 0. 2.87873344e-03 0.
      5.75746689e-03 0. 0. 2.51889182e-03 1.79920834e-03 0. 0. 0.
      4.31810040e-03 0. 0. 0. 3.59841681e-04 7.19683361e-04 0. 0. 0. 0.
      0. 0. 0. 7.19683361e-04 0. 0. 3.59841681e-04 0. 0. 3.59841681e-04
      0. 0. 0. 0. 0. 0. 0. 0. 0. 1.43936672e-03 7.19683361e-04
      3.59841681e-04 7.19683361e-04 0. 0. 7.19683361e-04 1.43936672e-03
      0. 0. 1.43936672e-03 0. 3.59841681e-04 0. 1.40338251e-02 0. 0.
      5.39762527e-03 0. 1.07952510e-03 5.03778365e-03 0. 0.
      7.19683361e-04 0. 2.51889182e-03 3.95825831e-03 0. 0. 0. 0. 0.
      1.54731926e-02 5.03778365e-03 0. 0. 0. 0. 0. 0. 0. 5.75746689e-03
      0. 0. 0. 0. 4.31810040e-03 0. 0. 1.43936672e-03 0. 1.07952510e-03
      0. 0. 1.51133509e-02 3.23857507e-03 3.59841681e-04 0. 0. 0.
      1.43936672e-03 3.59841681e-04 0. 0. 0. 5.03778365e-03
      7.19683361e-04 0. 0. 1.79920834e-03 0. 0. 1.07952510e-03 0. 0.
      2.48290766e-02 0. 7.19683361e-04 0. 0. 2.15905020e-03 0.
      1.79920834e-03 0. 0. 8.99604242e-03 1.79920834e-03 0.
      3.59841681e-04 0. 1.79920834e-03 0. 2.51889182e-03 0.
      3.59841681e-04 0. 0. 3.59841681e-04 0. 3.59841681e-04 0. 0. 0. 0.
      4.31810040e-03 1.79920834e-03 0. 0. 0. 1.43936672e-03
      4.67794202e-03 2.15905020e-03 0. 0. 0. 3.59841681e-04
      1.43936672e-03 0. 7.19683361e-04 2.41093934e-02 0. 0.
      7.55667547e-03 0. 4.67794202e-03 0. 0. 0. 0. 7.19683361e-04 0.
      3.59841681e-04 6.47715013e-03 0. 0. 9.35588405e-03 0.
      2.15905020e-03 0. 0. 0. 0. 0. 0. 0. 0. 3.59841681e-04
      3.27455923e-02 0. 0. 0. 3.59841681e-04 1.29543003e-02
      3.59841681e-04 0. 0. 0. 3.88629027e-02 0. 3.59841681e-04 0.
      1.43936672e-03 3.59841681e-04 0. 0. 0. 0. 0. 0. 0. 1.79920834e-03
      3.31054330e-02 0. 0. 3.59841681e-04 7.19683361e-04 0.
      7.19683361e-04 3.59841681e-04 6.47715013e-03 0. 0. 0.
      1.07952510e-03 0. 1.83519255e-02 0. 0. 0. 6.47715013e-03 0.
      7.19683361e-04 0. 1.43936668e-02 0. 0. 0. 3.23857507e-03
      3.59841681e-04 0. 5.39762527e-03 7.19683361e-04 3.23857507e-03 0.
      0. 5.39762527e-03 0. 0. 0. 7.19683361e-04 0. 1.43936672e-03 0.
      7.19683338e-03 7.19683361e-04 0. 0. 0. 1.07952510e-03 0.
      3.59841681e-04 0. 0. 0. 0. 1.43936672e-03 0. 2.15905020e-03
      7.19683338e-03 1.43936672e-03 1.15149338e-02 0. 2.15905020e-03 0.
      0. 0. 0. 0. 0. 0. 0. 0. 0. 0. 0. 0. 0. 0. 1.07952510e-03 0. 0. 0.
      0. 7.19683361e-04 0. 0. 7.19683361e-04 3.59841681e-04 0.
      3.59841681e-04 0. 0. 0. 0. 3.59841681e-04 0. 0. 7.19683361e-04 0.
      0. 0. 0.</_>
    <_>
      0. 0. 0. 0. 0. 6.99790078e-04 0. 0. 6.99790078e-04 0. 0. 0. 0.
      4.19874024e-03 0. 1.53953815e-02 1.39958016e-03 0. 0. 0. 0. 0. 0.
      3.28901336e-02 0. 6.99790078e-04 6.99790078e-04 0. 0. 0. 0. 0. 0.
      0. 0. 0. 0. 0. 0. 0. 0. 6.29811082e-03 1.39958016e-03
      2.09937012e-03 0. 0. 0. 0. 0. 0. 0. 0. 6.99790078e-04 0. 0. 0. 0.
      0. 0. 0. 6.99790078e-04 0. 0. 0. 0. 0. 0. 1.39958016e-03
      6.99790078e-04 0. 0. 6.99790078e-04 0. 0. 2.44926531e-02 0. 0. 0.
      2.79916031e-03 6.99790078e-04 0. 0. 0. 4.19874024e-03 0. 0. 0. 0.
      0. 1.46955913e-02 0. 1.39958016e-03 1.39958016e-03 0.
      6.99790078e-04 0. 0. 6.99790078e-04 0. 0. 6.29811082e-03 0. 0. 0.
      0. 0. 0. 6.99790078e-04 6.99790078e-04 0. 0. 6.99790078e-04 0. 0.
      6.99790101e-03 0. 0. 0. 0. 0. 0. 3.49895051e-03 6.99790101e-03 0.
      0. 6.99790101e-03 0. 0. 4.19874024e-03 0. 6.99790078e-04 0.
      2.09937012e-03 0. 0. 0. 1.39958016e-03 0. 0. 6.99790078e-04
      3.49895051e-03 0. 0. 0. 1.39958016e-03 0. 0. 0. 0. 0.
      6.99790101e-03 6.99790078e-04 0. 0. 0. 0. 0. 0. 0. 0. 0.
      1.39958016e-03 0. 0. 0. 0. 0. 0. 0. 0. 0. 1.39958016e-03 0.
      6.99790078e-04 0. 0. 1.32960118e-02 0. 0. 0. 0. 1.39958016e-03 0.
      6.99790078e-04 0. 0. 6.99790078e-04 0. 0. 0. 0. 0. 1.39958016e-03
      0. 0. 1.39958016e-03 6.99790078e-04 2.79916031e-03 6.99790078e-04
      0. 6.99790078e-04 1.39958016e-03 6.99790078e-04 0. 0.
      6.99790078e-04 2.79916031e-03 0. 0. 6.99790078e-04 0. 0. 0. 0. 0.
      0. 0. 0. 0. 0. 0. 0. 0. 0. 0. 0. 0. 0. 3.49895051e-03 0. 0. 0. 0.
      0. 0. 0. 0. 4.19874024e-03 0. 0. 2.09937012e-03 0. 0. 0. 0. 0.
      6.99790078e-04 0. 9.79706086e-03 0. 0. 6.99790078e-04 0. 0. 0. 0.
      0. 6.99790078e-04 0. 0. 0. 1.39958016e-03 1.32960118e-02 0. 0. 0.
      0. 0. 1.39958016e-03 6.99790078e-04 6.99790078e-04 0. 0.
      6.99790078e-04 0. 0. 0. 0. 0. 0. 0. 6.99790078e-04 6.99790078e-04
      3.49895051e-03 0. 0. 0. 6.99790078e-04 0. 0. 0. 0. 0.
      1.39958020e-02 0. 0. 0. 0. 0. 0. 0. 1.60951726e-02 0.
      6.99790078e-04 0. 0. 0. 2.79916031e-03 0. 2.79916031e-03
      6.99790078e-04 6.99790078e-04 4.75857258e-02 0. 0. 4.19874024e-03
      0. 0. 0. 1.39958016e-03 0. 0. 0. 6.99790078e-04 0. 0. 0.
      6.99790078e-04 0. 0. 0. 0. 0. 0. 0. 6.99790078e-04 0. 0. 0. 0. 0.
      0. 0. 0. 0. 2.09937012e-03 0. 1.46955913e-02 0. 1.39958016e-03
      6.99790078e-04 7.69769074e-03 0. 0. 1.39958016e-03 0. 0.
      6.99790078e-04 2.09937012e-03 0. 0. 0. 0. 0. 0. 0. 0.
      1.39958016e-03 0. 0. 0. 0. 0. 0. 0. 0. 0. 0. 6.29811082e-03
      6.99790078e-04 1.39958016e-03 0. 3.49895051e-03 5.17844670e-02 0.
      1.39958016e-03 0. 0. 0. 0. 0. 0. 0. 0. 6.99790078e-04 0. 0. 0.
      2.79916031e-03 0. 0. 0. 3.49895051e-03 2.09937012e-03 0. 0. 0.
      2.09937012e-03 2.09937012e-03 0. 1.39958016e-03 3.49895051e-03 0.
      0. 0. 0. 1.39958016e-03 0. 0. 0. 0. 7.69769074e-03 0. 0.
      6.99790078e-04 0. 0. 0. 0. 0. 0. 0. 0. 0. 0. 0. 0. 0. 0. 0.
      2.79916031e-03 0. 6.99790078e-04 0. 0. 6.99790078e-04 0. 0.
      6.99790101e-03 0. 0. 0. 0. 0. 0. 0. 0. 0. 0. 0. 4.19874024e-03
      6.99790078e-04 0. 0. 0. 6.99790101e-03 0. 0. 0. 0. 0. 0. 0. 0.
      1.25962216e-02 0. 6.99790078e-04 0. 0. 0. 0. 0. 0. 7.69769074e-03
      2.09937012e-03 0. 0. 0. 0. 0. 0. 0. 0. 0. 0. 0. 0. 0. 0. 0.
      1.95941217e-02 0. 0. 0. 0. 0. 6.99790078e-04 0. 0. 6.99790078e-04
      0. 0. 9.09727067e-03 0. 0. 0. 0. 0. 0. 0. 2.79916031e-03 0. 0. 0.
      6.99790078e-04 5.59832063e-03 0. 0. 0. 2.79916031e-03 0. 0. 0. 0.
      1.39958016e-03 0. 0. 0. 0. 0. 8.39748047e-03 0. 1.39958016e-03 0.
      0. 2.79916031e-03 0. 0. 1.39958016e-03 0. 0. 0. 0. 0.
      2.09937012e-03 0. 6.99790078e-04 0. 2.09937012e-03 0. 0.
      2.58922335e-02 0. 6.99790078e-04 1.39958016e-03 0. 0. 0.
      1.39958016e-03 0. 0. 0. 0. 0. 0. 0. 0. 6.99790078e-04 0.
      1.11966413e-02 1.39958016e-03 0. 6.15815260e-02 0. 0.
      1.39958016e-03 0. 6.99790078e-04 0. 0. 0. 0. 0. 0. 1.39958016e-03
      0. 2.16934923e-02 0. 0. 6.99790078e-04 0. 0. 3.49895051e-03 0. 0.
      3.49895051e-03 0. 0. 0. 0. 0. 0. 0. 2.02939119e-02 0.
      2.79916031e-03 0. 2.09937012e-03 0. 0. 2.09937012e-03
      6.99790078e-04 0. 0. 0. 0. 0. 0. 0. 2.09937012e-03 0. 0. 0. 0. 0.
      0. 0. 6.99790101e-03 0. 3.49895051e-03 0. 0. 0. 0. 0. 0. 0.
      1.39958016e-03 0. 0. 0. 0. 1.39958016e-03 0. 6.99790078e-04 0.
      6.99790078e-04 0. 0. 0. 0. 0. 0. 0. 0. 0. 0. 6.99790078e-04
      6.99790078e-04 0. 0. 0. 0. 0. 2.09937012e-03 5.59832063e-03 0.
      2.79916031e-03 0. 0. 4.89853043e-03 0. 0. 6.99790078e-04 0.
      8.04758593e-02 0. 0. 2.44926531e-02 0. 7.69769074e-03
      2.09937012e-03 0. 0. 0. 6.99790078e-04 6.99790078e-04 0.
      6.99790078e-04 3.49895051e-03 0. 7.69769074e-03 1.39958016e-03 0.
      0. 0. 0. 2.79916031e-03 0. 0. 0. 0. 0. 2.79916031e-03 0. 0.
      6.99790078e-04 0. 0. 0. 0. 0. 0. 0. 0. 2.79916031e-03 0. 0. 0.
      6.99790078e-04 0. 0. 0. 2.09937012e-03 0. 3.49895051e-03 0. 0. 0.
      3.14905532e-02 0. 0. 1.04968511e-02 0. 0. 0. 6.99790078e-04 0. 0.
      5.59832063e-03 0. 0. 0. 0. 0. 0. 0. 0. 6.29811082e-03 0.
      6.29811082e-03 0. 0. 0. 0. 3.49895051e-03 0. 0. 1.39958016e-03 0.
      0. 3.49895051e-03 0. 0. 2.79916031e-03 0. 0. 0. 0. 0. 0. 0. 0. 0.
      0. 0. 0. 0. 0. 0. 0. 0. 0. 6.99790078e-04 0. 6.99790078e-04 0. 0.
      0. 0.</_>
    <_>
      0. 0. 1.68776372e-03 0. 0. 0. 0. 0. 0. 0. 0. 0. 0. 0. 0. 0. 0. 0.
      0. 0. 8.43881862e-04 0. 9.28270072e-03 0. 8.43881862e-04 0.
      1.68776372e-03 0. 0. 0. 0. 0. 0. 0. 0. 0. 0. 0. 0. 1.18143465e-02
      0. 0. 0. 8.43881862e-04 0. 0. 5.06329117e-03 0. 5.06329117e-03 0.
      0. 2.53164559e-03 0. 5.06329117e-03 0. 0. 0. 1.68776372e-03
      8.43881862e-04 7.59493653e-03 0. 2.53164559e-03 0. 0. 0. 0. 0.
      1.68776372e-03 0. 0. 0. 0. 3.37552745e-03 0. 0. 0. 0. 0. 0. 0. 0.
      0. 0. 0. 0. 0. 1.68776372e-03 0. 0. 8.43881862e-04 1.01265823e-02
      0. 0. 8.43881862e-04 2.53164559e-03 0. 0. 0. 0. 0. 4.21940908e-03
      0. 0. 0. 0. 8.43881862e-04 0. 0. 0. 2.53164559e-03 0. 0. 0.
      1.68776372e-03 5.90717327e-03 0. 0. 0. 0. 0. 0. 1.68776372e-03 0.
      4.21940908e-03 1.68776372e-03 7.59493653e-03 0. 0. 0. 0. 0. 0. 0.
      0. 0. 0. 0. 0. 0. 0. 0. 0. 5.06329117e-03 8.43881862e-04 0. 0. 0.
      8.43881862e-04 0. 0. 2.53164559e-03 0. 2.53164559e-03 0.
      1.68776372e-03 0. 0. 0. 1.68776372e-03 0. 0. 0. 0. 0.
      7.59493653e-03 2.53164559e-03 0. 0. 0. 0. 0. 0. 0. 4.21940908e-03
      0. 0. 0. 0. 0. 0. 0. 6.75105490e-03 0. 0. 0. 0. 0. 0.
      1.68776372e-03 1.68776372e-03 0. 4.21940908e-03 0. 0. 0. 0. 0. 0.
      0. 0. 3.37552745e-03 0. 0. 0. 0. 8.43881862e-04 5.90717327e-03 0.
      0. 0. 0. 0. 0. 0. 8.43881862e-04 2.53164559e-03 8.43881862e-04 0.
      0. 1.68776372e-03 0. 0. 0. 3.37552745e-03 1.68776372e-03
      8.43881862e-04 0. 0. 0. 0. 0. 2.53164559e-03 0. 0. 0. 0. 0. 0. 0.
      0. 0. 2.53164559e-03 0. 0. 0. 0. 0. 0. 0. 0. 8.43881862e-04
      8.43881862e-04 0. 0. 0. 0. 0. 0. 0. 0. 0. 0. 1.51898731e-02 0. 0.
      0. 0. 0. 0. 8.43881862e-04 1.68776372e-03 0. 0. 0. 0.
      1.68776372e-03 0. 0. 0. 0. 5.06329117e-03 0. 1.68776372e-03 0.
      2.53164559e-03 3.37552745e-03 0. 0. 0. 7.59493653e-03 0. 0.
      8.43881862e-04 0. 8.43881862e-04 0. 0. 0. 0. 0. 0. 0. 0.
      3.37552745e-03 0. 8.43881862e-04 0. 1.68776372e-03 0. 0. 0. 0.
      1.26582282e-02 0. 0. 0. 8.43881862e-04 0. 1.68776372e-03
      2.53164559e-03 0. 5.90717327e-03 0. 5.90717327e-03 8.43881862e-04
      0. 0. 2.53164559e-03 8.43881862e-04 0. 0. 5.06329117e-03 0. 0. 0.
      0. 0. 2.53164559e-03 1.68776372e-03 0. 0. 4.21940908e-03
      5.06329117e-03 0. 8.43881862e-04 0. 0. 5.90717327e-03 0.
      6.75105490e-03 0. 0. 0. 0. 8.43881862e-04 0. 0. 0. 0. 0. 0. 0. 0.
      0. 0. 0. 0. 0. 0. 0. 0. 0. 0. 0. 0. 0. 0. 0. 0. 0. 0. 0. 0. 0. 0.
      6.16033748e-02 8.43881862e-04 0. 0. 0. 0. 8.43881862e-04 0. 0.
      8.43881862e-04 0. 0. 0. 1.68776372e-03 0. 0. 0. 1.68776372e-03
      6.75105490e-03 0. 0. 0. 0. 0. 0. 0. 0. 0. 0. 8.43881862e-04 0.
      1.01265823e-02 0. 0. 0. 8.43881862e-04 9.28270072e-03 0. 0. 0. 0.
      0. 3.37552745e-03 5.90717327e-03 0. 0. 0. 0. 0. 0. 0. 0. 0.
      8.43881862e-04 8.43881862e-04 0. 0. 0. 0. 0. 1.68776372e-03 0. 0.
      1.35021098e-02 0. 0. 0. 0. 0. 0. 0. 0. 0. 6.75105490e-03 0. 0.
      8.43881862e-04 0. 0. 0. 1.51898731e-02 0. 0. 5.90717327e-03
      8.43881862e-04 0. 2.53164559e-03 0. 0. 0. 0. 0. 0. 4.21940908e-03
      0. 7.59493653e-03 0. 8.43881862e-04 0. 0. 0. 1.68776372e-03 0. 0.
      5.90717327e-03 0. 4.21940908e-03 0. 0. 1.26582282e-02
      1.01265823e-02 0. 5.90717327e-03 0. 0. 0. 0. 0. 0. 5.06329117e-03
      0. 1.68776372e-03 0. 0. 0. 0. 2.53164559e-03 0. 0. 0. 0. 0. 0. 0.
      1.68776372e-03 0. 0. 0. 0. 8.43881862e-04 0. 0. 2.53164559e-03 0.
      0. 0. 0. 0. 0. 1.68776372e-03 0. 7.59493653e-03 0. 0.
      8.43881862e-04 0. 0. 0. 0. 0. 0. 0. 0. 0. 0. 8.43881862e-04 0. 0.
      0. 0. 1.68776372e-03 0. 0. 0. 0. 1.85654014e-02 4.21940908e-03
      8.43881862e-04 3.37552745e-03 1.68776372e-03 0. 0. 0. 0. 0. 0. 0.
      0. 0. 3.37552745e-03 0. 0. 0. 0. 2.53164559e-03 0. 0.
      1.70464143e-01 8.43881862e-04 0. 0. 0. 0. 0. 7.59493653e-03
      6.75105490e-03 1.68776372e-03 8.43881862e-04 0. 0. 0. 0.
      1.68776372e-03 0. 0. 0. 0. 0. 4.21940945e-02 0. 0. 0. 0. 0. 0. 0.
      1.68776372e-03 0. 2.53164563e-02 8.43881862e-04 0. 0. 0. 0. 0. 0.
      0. 9.28270072e-03 0. 0. 0. 1.68776372e-03 2.53164559e-03 0. 0. 0.
      0. 0. 0. 0. 5.06329117e-03 0. 0. 0. 6.75105490e-03 0. 0. 0. 0.
      8.43881862e-04 0. 3.37552745e-03 0. 0. 8.43881862e-04 0. 0.
      2.53164559e-03 0. 0. 0. 0. 1.68776372e-03 0. 0. 0. 0.
      2.53164559e-03 8.43881862e-04 3.37552745e-03 8.43881862e-04 0. 0.
      0. 0. 0. 0. 1.68776372e-03 0. 8.43881862e-04 1.85654014e-02 0.
      1.68776372e-03 0. 0. 0. 0. 0. 0. 0. 8.43881862e-04 1.68776372e-03
      8.43881862e-04 0. 0. 0. 8.43881862e-04 2.53164559e-03 0. 0. 0. 0.
      0. 7.59493653e-03 3.37552745e-03 0. 0. 0. 0. 0. 0. 0. 0. 0. 0. 0.
      0. 0. 1.68776372e-03 0. 1.68776372e-03 0. 3.37552745e-03
      4.21940908e-03 2.53164559e-03 0. 2.53164559e-03 0. 0. 0. 0.
      4.21940908e-03 0. 2.53164559e-03 1.18143465e-02 0. 0. 0.
      1.43459914e-02 0. 0. 0. 0. 0. 2.53164559e-03 0. 5.06329117e-03 0.
      1.68776372e-03 0. 0. 2.53164559e-03 0. 0. 0. 0. 0. 0. 0. 0. 0. 0.
      0. 3.37552745e-03 0. 0. 0. 0. 0. 0. 0. 0. 0. 4.21940908e-03 0. 0.
      0. 0. 0. 0. 0. 0. 0. 1.68776372e-03 0. 0. 8.43881862e-04 0.
      1.68776372e-03 0. 0. 0. 0. 0. 0. 0. 0. 1.94092821e-02 0. 0.
      1.68776372e-03 0. 0. 0. 0.</_>
    <_>
      0. 0. 1.35256990e-03 0. 0. 0. 0. 0. 0. 0. 0. 0. 0. 1.80342654e-03
      0. 0. 0. 0. 0. 0. 0. 4.50856634e-04 4.95942309e-03 0. 0. 0.
      1.35256990e-03 0. 0. 0. 0. 0. 0. 9.01713269e-04 0. 2.43462585e-02
      1.35256990e-03 0. 0. 1.08205592e-02 3.15599656e-03 1.35256990e-03
      2.25428306e-03 0. 0. 9.01713269e-04 0. 1.80342654e-03
      2.25428324e-02 1.35256990e-03 0. 1.35256990e-03 0. 4.50856634e-04
      0. 0. 0. 4.05770959e-03 4.50856634e-04 9.01713269e-04
      1.35256993e-02 1.35256990e-03 0. 0. 0. 0. 0. 0. 0. 0.
      4.50856634e-04 0. 0. 0. 4.50856634e-04 0. 0. 0. 0. 4.50856634e-04
      0. 4.50856634e-04 4.50856634e-04 9.01713269e-04 0. 0. 0. 0. 0.
      2.70513981e-03 0. 2.25428306e-03 0. 7.66456267e-03 6.76284963e-03
      0. 3.15599656e-03 0. 4.50856634e-04 0. 4.50856634e-04 0. 0. 0.
      4.50856634e-04 0. 0. 0. 0. 9.01713269e-04 0. 9.01713269e-04 0. 0.
      0. 0. 0. 0. 0. 0. 0. 0. 0. 0. 0. 2.16411185e-02 0. 0. 0.
      1.80342654e-03 1.80342654e-03 4.50856634e-04 9.46798921e-03 0. 0.
      8.56627617e-03 4.50856634e-04 0. 4.50856634e-04 8.56627617e-03 0.
      0. 3.60685308e-03 0. 0. 0. 0. 0. 0. 0. 5.86113613e-03
      1.39765553e-02 2.25428306e-03 9.01713269e-04 0. 0. 0. 0. 0.
      4.50856634e-04 0. 0. 0. 0. 3.15599656e-03 6.76284963e-03 0. 0. 0.
      0. 0. 0. 0. 0. 0. 0. 5.41027961e-03 0. 0. 9.01713269e-04 0.
      1.80342654e-03 4.50856611e-03 0. 0. 0. 0. 0. 0. 9.01713269e-04 0.
      3.56176756e-02 2.70513981e-03 0. 0. 0. 0. 0. 3.60685308e-03 0.
      1.80342654e-03 0. 4.50856634e-04 0. 0. 1.80342654e-03
      5.41027961e-03 0. 0. 1.35256990e-03 0. 2.25428306e-03 0. 0.
      4.95942309e-03 4.05770959e-03 0. 0. 0. 0. 0. 0. 0. 0. 0. 0. 0. 0.
      4.95942309e-03 0. 0. 0. 0. 0. 0. 0. 0. 0. 0. 0. 4.95942309e-03 0.
      4.50856634e-04 0. 0. 0. 0. 0. 4.50856634e-04 0. 2.25428306e-03 0.
      0. 0. 0. 0. 0. 0. 0. 0. 2.25428306e-03 0. 2.25428306e-03 0. 0. 0.
      0. 4.50856634e-04 0. 2.70513981e-03 0. 0. 0. 4.50856634e-04
      4.50856634e-04 0. 4.50856634e-04 0. 0. 9.01713269e-04
      1.35256990e-03 0. 0. 0. 0. 1.35256990e-03 0. 0. 4.50856634e-04
      1.35256990e-03 9.01713269e-04 0. 9.01713269e-04 2.25428306e-03
      1.80342654e-03 1.80342654e-03 2.70513981e-03 0. 0. 0. 0. 0. 0.
      4.50856634e-04 0. 0. 0. 0. 6.31199311e-03 9.01713269e-04 0. 0.
      2.11902615e-02 0. 0. 1.35256993e-02 0. 4.95942309e-03 0. 0. 0.
      3.15599656e-03 9.01713269e-04 9.01713269e-04 8.56627617e-03 0. 0.
      4.50856634e-04 0. 9.01713269e-04 0. 0. 0. 0. 0. 0. 0.
      4.50856634e-04 0. 0. 0. 4.50856634e-04 0. 4.50856634e-04
      3.60685308e-03 8.56627617e-03 0. 2.25428306e-03 0. 0.
      1.80342654e-03 0. 0. 0. 4.50856634e-04 0. 0. 0. 9.01713269e-04
      4.50856634e-04 4.50856634e-04 0. 1.80342654e-03 0. 0.
      9.01713269e-04 0. 4.50856634e-04 0. 0. 0. 0. 0. 0. 0. 0. 0. 0.
      9.01713269e-04 0. 0. 9.01713269e-04 2.70513981e-03 8.11541919e-03
      0. 1.12714162e-02 0. 4.50856634e-04 2.70513981e-03 0. 0. 0. 0. 0.
      0. 0. 0. 0. 9.01713269e-04 9.01713269e-04 0. 0. 0. 0. 0. 0. 0. 0.
      0. 0. 0. 0. 0. 0. 0. 0. 2.70513981e-03 0. 0. 0. 0. 0. 0. 0.
      7.66456267e-03 0. 0. 9.01713269e-04 1.80342654e-03 0.
      1.80342654e-03 0. 9.01713269e-04 0. 0. 0. 0. 0. 0. 2.25428306e-03
      6.31199311e-03 0. 0. 0. 9.01713269e-04 0. 0. 0. 3.15599628e-02 0.
      1.35256990e-03 0. 0. 0. 2.25428306e-03 0. 0. 0. 6.76284963e-03 0.
      4.50856634e-04 1.93868354e-02 0. 0. 0. 1.17222723e-02 0. 0.
      4.50856634e-04 0. 0. 0. 1.30748423e-02 0. 1.39765553e-02
      5.86113613e-03 0. 0. 0. 0. 7.21370615e-03 0. 0. 0. 0. 0. 0.
      2.25428306e-03 0. 4.05770959e-03 0. 0. 0. 0. 9.01713269e-04
      4.50856634e-04 0. 4.50856634e-04 0. 0. 4.05770959e-03
      4.50856634e-04 0. 0. 9.01713269e-04 0. 0. 0. 0. 4.50856634e-04
      1.35256990e-03 4.05770959e-03 1.35256990e-03 0. 4.50856634e-04
      9.01713269e-04 0. 4.50856634e-04 0. 9.01713269e-04 0. 0. 0. 0.
      1.35256990e-03 0. 1.08205592e-02 1.35256990e-03 5.41027961e-03 0.
      0. 0. 0. 0. 0. 0. 0. 0. 8.11541919e-03 0. 0. 0. 1.39765553e-02 0.
      0. 0. 0. 9.01713269e-04 1.35256990e-03 0. 1.80342654e-03 0. 0.
      1.35256990e-03 4.50856634e-04 1.17222723e-02 0. 0. 0.
      4.50856634e-04 0. 0. 4.50856634e-04 1.80342654e-03 4.95942309e-03
      4.50856634e-04 0. 0. 0. 0. 1.35256990e-03 0. 0. 0. 9.01713269e-04
      0. 0. 0. 0. 1.35256990e-03 0. 0. 5.22993691e-02 0. 0. 0. 0. 0. 0.
      0. 1.62308384e-02 0. 0. 0. 4.50856634e-04 0. 0. 0. 0.
      4.50856611e-03 0. 0. 0. 4.95942309e-03 0. 1.35256990e-03
      3.15599656e-03 0. 4.05770959e-03 0. 0. 4.50856634e-04 0.
      4.05770959e-03 0. 2.70513981e-03 0. 0. 0. 0. 4.50856634e-04 0. 0.
      0. 0. 0. 0. 4.50856634e-04 0. 0. 4.50856634e-04 0. 0.
      1.35256990e-03 0. 0. 0. 0. 0. 1.35256990e-03 2.25428306e-03 0. 0.
      0. 0. 0. 0. 8.11541919e-03 0. 0. 2.43462585e-02 1.80342654e-03
      2.70513981e-03 0. 9.01713269e-04 0. 9.01713269e-04 4.50856634e-04
      0. 0. 4.50856634e-04 0. 0. 1.35256990e-03 9.01713269e-04 0. 0. 0.
      0. 4.50856634e-04 4.50856634e-04 4.50856634e-04 0. 0. 0.
      2.66005415e-02 1.80342654e-03 0. 0. 0. 0. 0. 0. 0. 0.
      2.02885494e-02 0. 3.60685308e-03 0. 2.70513981e-03 9.01713269e-04
      4.50856634e-04 0. 0. 0. 4.05770959e-03 0. 0. 0. 6.76284963e-03 0.
      4.50856634e-04 2.25428306e-03 0. 0. 5.41027961e-03 0.
      9.01713269e-04 4.50856634e-04 2.70513981e-03 9.01713269e-04 0. 0.
      4.77908030e-02 0. 0. 0. 4.50856634e-04 0. 5.41027961e-03
      4.50856634e-04 0. 0. 0. 0. 0. 9.01713269e-04 0. 4.50856634e-04
      6.31199311e-03 0. 0. 0. 3.15599656e-03 2.70513981e-03 0. 0. 0. 0.
      2.25428306e-03 0. 2.25428306e-03 9.01713269e-04 0. 0. 0. 0. 0. 0.
      0. 0. 0. 0. 0. 0. 1.35256990e-03 0. 0. 4.50856634e-04 0.
      4.50856634e-04 0. 0. 0. 4.05770959e-03 0. 0. 0. 0. 0. 0. 0. 0. 0.
      5.41027961e-03 0. 0. 0. 0. 0. 0. 4.95942309e-03 0. 0. 0. 0. 0. 0.
      0. 0. 0. 0. 1.80342654e-03 0. 0. 0. 0. 0. 0. 0.</_>
    <_>
      0. 0. 0. 0. 6.27413113e-03 0. 0. 0. 0. 0. 0. 0. 0. 1.11003863e-02
      2.41312734e-03 0. 0. 0. 0. 1.15830116e-02 0. 0. 0. 0. 0. 0. 0. 0.
      0. 0. 0. 7.72200758e-03 0. 0. 0. 1.20656369e-02 0. 0. 0.
      1.44787645e-02 0. 1.44787645e-03 9.65250947e-04 0. 0. 0. 0.
      2.41312734e-03 0. 0. 0. 8.68725870e-03 1.44787645e-03
      4.82625474e-04 9.65250947e-04 0. 0. 0. 0. 4.82625474e-04
      2.02702694e-02 0. 0. 0. 0. 0. 0. 0. 6.27413113e-03 0. 0. 0. 0. 0.
      0. 0. 0. 0. 0. 0. 0. 0. 0. 0. 0. 0. 0. 0. 1.44787645e-03 0. 0.
      9.65250947e-04 4.82625474e-04 0. 0. 0. 0. 0. 0. 0. 1.44787645e-03
      0. 0. 0. 0. 0. 0. 0. 0. 0. 4.82625474e-04 0. 0. 0. 0. 0. 0. 0. 0.
      0. 9.65250947e-04 1.93050189e-03 7.23938225e-03 0. 4.82625474e-04
      9.65250935e-03 0. 0. 0. 0. 0. 0. 0. 0. 0. 0. 0. 0. 0.
      6.27413113e-03 0. 0. 4.82625474e-04 0. 0. 0. 0. 0. 0. 0. 0.
      1.93050189e-03 1.44787645e-03 0. 4.82625474e-04 4.82625474e-04
      4.82625474e-04 0. 0. 0. 4.82625474e-04 0. 0. 0. 0. 0. 0. 0. 0.
      4.82625474e-04 0. 0. 7.81853274e-02 0. 0. 0. 4.82625474e-04
      4.82625474e-04 0. 7.23938225e-03 0. 2.79922783e-02 1.01351347e-02
      0. 0. 0. 0. 0. 0. 1.93050189e-03 0. 3.13706547e-02 9.65250947e-04
      0. 0. 0. 0. 9.65250947e-04 0. 0. 0. 0. 0. 0. 0. 0. 0. 0. 0.
      4.82625474e-04 0. 1.93050189e-03 0. 0. 2.89575290e-03 0. 0. 0. 0.
      0. 0. 9.65250947e-04 0. 0. 0. 0. 0. 0. 1.44787645e-03 0. 0. 0. 0.
      0. 0. 4.82625468e-03 8.68725870e-03 0. 4.82625474e-04 0. 0. 0. 0.
      1.44787645e-03 0. 0. 0. 0. 0. 4.82625474e-04 0. 0. 0. 0. 0. 0. 0.
      0. 0. 0. 0. 0. 7.23938225e-03 0. 0. 0. 0. 4.82625474e-04
      4.82625474e-04 9.65250947e-04 0. 0. 0. 0. 4.82625474e-04 0. 0. 0.
      0. 3.86100379e-03 0. 0. 0. 0. 0. 3.37837823e-03 0. 0. 0. 0.
      5.30888001e-03 0. 8.68725870e-03 0. 4.82625474e-04 0. 0. 0. 0. 0.
      0. 0. 3.37837823e-03 0. 0. 0. 0. 0. 0. 8.20463337e-03
      6.27413113e-03 0. 0. 0. 0. 9.16988403e-03 0. 2.89575290e-03 0. 0.
      0. 0. 9.65250947e-04 9.65250947e-04 1.11003863e-02 0. 0.
      2.41312734e-03 4.82625474e-04 5.30888001e-03 0. 0. 0. 0. 0. 0. 0.
      2.89575290e-03 0. 0. 0. 4.82625474e-04 0. 0. 0. 0. 0.
      4.82625474e-04 1.44787645e-03 1.44787645e-03 0. 0. 3.37837823e-03
      1.93050189e-03 0. 0. 0. 0. 3.37837823e-03 0. 0. 0. 0. 0. 0. 0. 0.
      0. 0. 0. 0. 0. 0. 0. 0. 4.82625474e-04 0. 0. 7.14285672e-02 0. 0.
      7.23938225e-03 4.82625474e-04 1.39961392e-02 2.89575290e-03 0.
      3.37837823e-03 0. 0. 4.82625474e-04 4.82625474e-04 0. 0. 0. 0. 0.
      0. 0. 0. 1.39961392e-02 0. 0. 0. 8.20463337e-03 0. 0. 0. 0.
      4.34362935e-03 0. 0. 0. 0. 0. 0. 0. 0. 0. 0. 0. 0. 5.30888001e-03
      0. 0. 4.82625474e-04 0. 0. 0. 9.65250947e-04 0. 2.41312734e-03 0.
      0. 0. 4.82625474e-04 0. 0. 0. 0. 0. 0. 0. 0. 0. 0. 0. 0. 0.
      4.82625474e-04 0. 0. 0. 0. 0. 0. 0. 0. 0. 4.34362935e-03 0.
      1.44787645e-03 0. 0. 0. 0. 1.39961392e-02 0. 2.89575290e-03 0.
      9.65250947e-04 0. 0. 6.75675645e-03 0. 4.82625474e-04 0. 0. 0. 0.
      0. 0. 0. 4.82625474e-04 9.31467190e-02 0. 0. 0. 0. 0. 0. 0.
      4.82625474e-04 0. 0. 0. 4.82625474e-04 0. 0. 0. 1.44787645e-03
      4.82625474e-04 0. 0. 0. 5.79150580e-03 0. 0. 0. 0. 0. 0. 0. 0. 0.
      0. 4.82625474e-04 0. 1.44787645e-03 0. 1.49613898e-02 0. 0. 0. 0.
      0. 0. 0. 0. 0. 4.82625474e-04 0. 0. 0. 0. 0. 0. 0. 0.
      1.49613898e-02 0. 4.82625474e-04 0. 4.82625474e-04 0. 0.
      5.79150580e-03 0. 0. 4.82625474e-04 0. 0. 0. 0. 4.34362935e-03
      8.20463337e-03 8.20463337e-03 0. 0. 0. 0. 0. 9.65250947e-04
      2.41312734e-03 0. 0. 0. 0. 0. 0. 0. 0. 9.65250947e-04 0. 0. 0. 0.
      0. 0. 0. 2.89575290e-03 0. 0. 0. 4.82625474e-04 0. 0. 0. 0.
      3.37837823e-03 9.65250947e-04 0. 0. 0. 0. 0. 0. 0. 0. 0. 0. 0. 0.
      0. 4.82625468e-03 0. 1.44787645e-03 0. 0. 0. 0. 0. 0. 0.
      2.41312734e-03 0. 0. 0. 0. 0. 0. 0. 0. 0. 0. 0. 0. 0. 0. 0. 0. 0.
      0. 0. 0. 0. 0. 0. 5.79150580e-03 0. 1.93050189e-03 0. 0. 0. 0. 0.
      0. 4.82625474e-04 0. 0. 0. 1.97876450e-02 0. 4.82625474e-04 0. 0.
      0. 4.82625474e-04 0. 4.82625474e-04 0. 0. 0. 0. 9.65250947e-04 0.
      0. 0. 0. 0. 0. 4.82625474e-04 0. 0. 0. 4.82625474e-04
      1.11003863e-02 0. 0. 0. 7.72200758e-03 0. 0. 0. 9.65250947e-04 0.
      2.41312739e-02 0. 0. 0. 4.82625474e-04 9.65250935e-03 0. 0. 0. 0.
      0. 0. 0. 0. 0. 0. 0. 0. 5.79150580e-03 0. 0. 0. 3.57142836e-02 0.
      0. 0. 0. 9.65250935e-03 1.59266405e-02 0. 0. 0. 2.65444014e-02 0.
      0. 0. 9.65250947e-04 0. 4.82625474e-04 0. 0. 0. 0. 1.01351347e-02
      0. 0. 0. 0. 2.41312734e-03 0. 0. 0. 0. 0. 3.86100379e-03 0.
      4.82625474e-04 2.89575290e-03 4.82625474e-04 0. 0. 0. 0.
      4.82625474e-04 0. 0. 0. 0. 0. 0. 0. 0. 2.89575290e-03
      1.93050189e-03 0. 9.65250947e-04 0. 0. 0. 1.44787645e-03 0. 0. 0.
      0. 0. 0. 0. 0. 0. 0. 0. 1.44787645e-03 0. 9.65250947e-04 0. 0.
      4.34362935e-03 0. 0. 4.82625474e-04 0. 0. 0. 0. 0. 0. 0. 0. 0. 0.
      4.34362935e-03 0. 0. 0. 0.</_>
    <_>
      0. 0. 4.75059403e-03 0. 7.12589081e-03 0. 0. 0. 0. 0. 0. 0. 0.
      4.75059403e-03 0. 0. 0. 0. 0. 0. 0. 1.18764851e-03 0. 0. 0. 0. 0.
      0. 0. 0. 0. 0. 0. 0. 0. 4.15676981e-02 0. 0. 0. 2.37529702e-03 0.
      8.31353944e-03 2.37529702e-03 1.18764851e-03 0. 7.12589081e-03 0.
      2.37529702e-03 1.42517816e-02 0. 0. 2.96912119e-02 0.
      3.56294541e-03 5.93824266e-03 0. 0. 1.18764851e-03 0.
      8.31353944e-03 0. 0. 0. 0. 0. 0. 0. 0. 0. 0. 2.37529702e-03 0.
      1.06888367e-02 0. 7.12589081e-03 0. 0. 0. 0. 0. 0. 1.18764851e-03
      0. 0. 0. 0. 0. 0. 0. 1.18764851e-03 1.18764851e-03 3.56294541e-03
      0. 0. 7.12589081e-03 0. 0. 0. 0. 0. 8.31353944e-03 0. 0. 0.
      4.75059403e-03 1.18764851e-03 0. 2.37529702e-03 0. 0.
      5.93824266e-03 1.78147275e-02 0. 0. 2.37529706e-02 0. 0. 0. 0. 0.
      2.37529702e-03 0. 0. 0. 0. 3.56294541e-03 0. 0. 0. 0. 0.
      3.56294541e-03 5.34441844e-02 0. 0. 0. 0. 0. 2.37529702e-03
      5.93824266e-03 0. 0. 0. 0. 0. 0. 0. 3.56294541e-03 0. 0.
      3.56294541e-03 8.31353944e-03 3.56294541e-03 0. 0. 0. 0. 0. 0. 0.
      0. 0. 0. 0. 0. 0. 0. 0. 0. 2.37529702e-03 0. 0. 0. 0. 0. 0. 0. 0.
      0. 0. 0. 0. 0. 0. 0. 0. 0. 0. 0. 1.18764851e-03 0. 0. 0. 0. 0. 0.
      0. 1.54394303e-02 0. 0. 0. 0. 0. 0. 0. 0. 1.18764851e-03 0. 0. 0.
      0. 0. 0. 0. 0. 1.54394303e-02 0. 0. 0. 2.37529702e-03 0. 0. 0. 0.
      2.37529702e-03 0. 0. 0. 2.37529706e-02 0. 0. 0. 0. 0. 0. 0. 0. 0.
      3.56294541e-03 0. 2.13776734e-02 0. 0. 0. 0. 0. 0. 0. 0. 0.
      1.18764851e-03 0. 0. 0. 0. 0. 0. 0. 0. 0. 0. 0. 5.93824266e-03 0.
      0. 0. 0. 0. 0. 0. 2.37529702e-03 0. 0. 2.37529702e-03 0. 0. 0. 0.
      0. 0. 2.37529702e-03 0. 0. 0. 0. 0. 0. 0. 0. 0. 0. 0.
      3.56294541e-03 0. 0. 0. 0. 0. 0. 0. 0. 0. 0. 0. 0. 3.56294541e-03
      0. 0. 2.37529702e-03 0. 0. 0. 8.31353944e-03 0. 0. 3.56294541e-03
      0. 2.37529702e-03 0. 0. 0. 2.37529702e-03 0. 1.54394303e-02 0. 0.
      0. 2.37529702e-03 0. 0. 0. 0. 1.18764851e-03 0. 0. 0. 0.
      1.66270789e-02 0. 0. 0. 0. 0. 0. 0. 1.18764851e-03 3.56294541e-03
      0. 0. 1.30641339e-02 0. 0. 0. 0. 2.37529702e-03 0. 0. 0.
      1.18764851e-03 0. 0. 0. 0. 2.37529702e-03 0. 0. 0. 0. 0. 0. 0. 0.
      0. 0. 0. 0. 0. 0. 0. 0. 0. 2.37529702e-03 2.37529702e-03
      1.06888367e-02 0. 7.12589081e-03 0. 0. 0. 0. 1.18764851e-03 0. 0.
      0. 0. 0. 0. 0. 2.37529702e-03 1.66270789e-02 0. 0. 0. 0. 0. 0. 0.
      0. 0. 0. 4.75059403e-03 0. 0. 0. 0. 0. 0. 0. 0. 0. 0.
      1.66270789e-02 0. 0. 4.75059403e-03 0. 0. 0. 0. 0. 0. 0. 0. 0. 0.
      2.37529702e-03 0. 0. 0. 0. 1.18764851e-03 0. 0. 0. 0. 0. 0. 0.
      4.75059403e-03 0. 0. 0. 2.37529702e-03 0. 0. 0. 0. 0.
      2.37529702e-03 0. 0. 0. 0. 0. 0. 1.54394303e-02 0. 0. 0.
      4.75059403e-03 0. 0. 0. 0. 0. 0. 0. 0. 0. 0. 0. 0. 0. 0. 0. 0. 0.
      0. 0. 3.56294541e-03 0. 9.50118806e-03 0. 0. 3.56294541e-03
      3.56294541e-03 0. 2.37529702e-03 0. 0. 0. 0. 0. 0. 2.37529702e-03
      0. 2.37529702e-03 0. 0. 0. 0. 2.37529702e-03 0. 0. 0. 0. 0. 0. 0.
      3.56294541e-03 0. 0. 0. 0. 0. 0. 0. 0. 0. 0. 0. 0. 0. 0. 0. 0. 0.
      0. 1.18764853e-02 0. 0. 0. 9.50118806e-03 0. 0. 8.31353944e-03 0.
      1.18764851e-03 0. 0. 0. 0. 0. 0. 0. 0. 0. 0. 0. 0. 3.56294541e-03
      1.18764851e-03 0. 1.18764851e-03 0. 0. 0. 0. 0. 2.37529702e-03 0.
      0. 0. 0. 0. 0. 0. 0. 0. 2.37529702e-03 0. 0. 3.56294541e-03 0. 0.
      0. 0. 0. 0. 0. 1.18764851e-03 0. 0. 0. 0. 2.37529702e-03 0. 0. 0.
      0. 0. 1.18764851e-03 0. 1.90023761e-02 0. 0. 1.18764851e-03 0. 0.
      0. 0. 0. 0. 1.78147275e-02 2.37529702e-03 0. 0. 0. 0. 0. 0. 0. 0.
      0. 0. 0. 0. 0. 0. 0. 0. 0. 0. 0. 1.18764851e-03 1.18764851e-03 0.
      1.42517816e-02 0. 1.18764851e-03 0. 0. 0. 0. 0. 1.18764851e-03 0.
      2.25653220e-02 0. 0. 2.37529702e-03 0. 4.75059403e-03 0. 0.
      4.75059403e-03 0. 0. 0. 0. 0. 0. 1.18764851e-03 7.12589081e-03 0.
      0. 0. 0. 0. 0. 0. 0. 0. 0. 0. 3.80047522e-02 0. 1.18764851e-03 0.
      0. 8.31353944e-03 0. 0. 0. 1.18764851e-03 3.08788605e-02 0.
      3.56294541e-03 0. 0. 0. 2.37529702e-03 0. 0. 5.93824266e-03 0. 0.
      0. 3.56294541e-03 5.93824266e-03 0. 0. 2.37529702e-03 0. 0. 0. 0.
      0. 0. 0. 0. 0. 3.56294541e-03 0. 0. 2.37529702e-03 0.
      4.75059403e-03 2.37529702e-03 0. 0. 2.37529702e-03 0. 0. 0. 0. 0.
      0. 2.37529702e-03 0. 0. 0. 0. 1.18764851e-03 0. 0. 0. 0. 0. 0. 0.
      4.15676981e-02 0. 0. 0. 0. 5.93824266e-03 0. 0. 0. 0. 0. 0. 0. 0.
      0. 0. 1.18764851e-03 8.31353944e-03 0. 0. 0. 0. 0. 0. 0. 0. 0. 0.
      0. 0. 0. 0. 0. 0. 0. 2.37529702e-03 0. 0. 0. 0. 4.75059403e-03 0.
      0. 0. 0. 0. 0. 0. 0. 0. 0. 2.37529702e-03 0. 0. 0. 0. 0. 0. 0.</_>
    <_>
      0. 0. 0. 0. 0. 0. 0. 0. 0. 0. 0. 0. 0. 2.13310570e-02 0. 0. 0. 0.
      0. 4.26621130e-03 0. 0. 0. 0. 0. 0. 0. 0. 0. 0. 0. 0.
      5.11945365e-03 9.38566495e-03 0. 0. 0. 0. 0. 0. 0. 2.13310570e-02
      0. 0. 0. 0. 0. 3.41296918e-03 8.53242294e-04 0. 0. 0.
      8.53242294e-04 0. 3.41296918e-03 0. 0. 0. 0. 8.53242294e-04 0. 0.
      0. 0. 0. 0. 0. 5.11945365e-03 2.55972682e-03 0. 1.70648459e-03 0.
      0. 0. 0. 0. 0. 0. 0. 8.53242294e-04 0. 0. 0. 4.26621130e-03 0. 0.
      8.53242294e-04 0. 0. 1.36518767e-02 0. 0. 0. 0. 0. 0. 0. 0.
      1.70648459e-03 0. 1.70648459e-03 0. 0. 0. 0. 0. 0. 1.70648459e-03
      0. 0. 0. 4.26621130e-03 0. 0. 0. 0. 0. 0. 0. 8.53242294e-04 0. 0.
      0. 0. 1.10921497e-02 0. 0. 0. 0. 0. 0. 0. 5.97269600e-03 0. 0. 0.
      0. 0. 2.55972682e-03 0. 0. 0. 0. 0. 0. 0. 0. 0. 0. 0. 0. 0.
      4.26621130e-03 0. 0. 0. 2.55972682e-03 0. 0. 8.53242294e-04 0.
      1.70648459e-03 0. 0. 9.38566495e-03 0. 0. 0. 0. 0. 0. 0.
      4.77815680e-02 0. 0. 0. 0. 0. 0. 0. 4.26621130e-03 7.67918071e-03
      0. 0. 0. 0. 1.70648459e-03 0. 0. 0. 0. 0. 2.55972682e-03 0. 0. 0.
      0. 0. 0. 0. 0. 0. 0. 0. 0. 0. 5.97269600e-03 0. 0. 5.11945365e-03
      0. 2.55972682e-03 0. 0. 8.53242294e-04 6.82593836e-03 0. 0.
      8.53242294e-04 0. 0. 0. 0. 0. 0. 0. 0. 0. 0. 0. 0. 0. 0. 0. 0. 0.
      8.53242259e-03 0. 0. 0. 0. 0. 0. 2.55972682e-03 0. 0.
      9.38566495e-03 0. 0. 0. 0. 0. 0. 0. 0. 0. 0. 0. 0. 0.
      1.70648459e-03 0. 2.04778146e-02 0. 0. 0. 0. 0. 8.53242294e-04
      1.53583614e-02 3.41296918e-03 0. 0. 0. 0. 0. 3.41296918e-03 0. 0.
      0. 0. 8.53242294e-04 8.53242294e-04 0. 0. 3.41296918e-03 0. 0. 0.
      0. 0. 0. 0. 0. 0. 0. 0. 0. 0. 0. 0. 0. 1.27986344e-02 0. 0. 0. 0.
      0. 0. 5.97269600e-03 0. 0. 6.82593836e-03 0. 0. 0. 0.
      1.70648459e-03 0. 4.26621130e-03 1.70648459e-03 0. 0. 0. 0. 0. 0.
      0. 0. 4.26621130e-03 0. 0. 0. 8.53242294e-04 0. 0. 0. 0. 0. 0. 0.
      0. 0. 0. 0. 0. 0. 7.67918071e-03 3.41296918e-03 0. 0. 0. 0. 0. 0.
      0. 0. 0. 1.27986344e-02 0. 0. 0. 0. 0. 0. 0. 0. 8.53242294e-04 0.
      0. 0. 0. 0. 0. 0. 0. 0. 0. 3.41296918e-03 0. 0. 5.97269600e-03
      8.53242294e-04 8.53242278e-02 0. 0. 0. 0. 0. 0. 0. 0. 0. 0. 0. 0.
      0. 0. 0. 0. 0. 0. 0. 1.36518767e-02 0. 0. 0. 0. 0. 0. 0. 0. 0. 0.
      0. 8.53242294e-04 0. 0. 0. 0. 0. 0. 0. 0. 0. 0. 0. 0. 0. 0. 0. 0.
      0. 0. 0. 0. 0. 0. 0. 0. 1.19453920e-02 0. 0. 0. 0. 0. 0.
      8.53242294e-04 2.55972682e-03 0. 5.97269600e-03 0. 0. 0. 0. 0. 0.
      0. 0. 0. 2.55972682e-03 0. 0. 0. 2.55972682e-03 1.45051191e-02 0.
      0. 4.26621130e-03 0. 0. 0. 0. 0. 0. 0. 0. 0. 0. 0. 4.26621130e-03
      0. 0. 1.70648459e-03 0. 0. 0. 0. 0. 0. 0. 0. 0. 0. 0. 0.
      4.26621130e-03 0. 8.53242294e-04 0. 0. 0. 0. 0. 0. 2.55972682e-03
      0. 0. 0. 0. 0. 0. 0. 0. 0. 0. 0. 0. 0. 1.62116028e-02 0. 0. 0. 0.
      0. 1.70648459e-03 0. 0. 0. 0. 0. 0. 0. 0. 0. 0. 0. 0. 0. 0.
      3.58361751e-02 0. 2.55972682e-03 0. 0. 0. 0. 8.53242294e-04
      5.11945365e-03 0. 0. 0. 0. 0. 0. 0. 5.11945365e-03 0. 0. 0. 0.
      2.64505111e-02 0. 0. 0. 0. 0. 0. 0. 2.55972682e-03 0. 0. 0. 0. 0.
      0. 0. 2.55972682e-03 0. 0. 0. 0. 2.47440264e-02 0. 0. 0. 0. 0.
      2.55972682e-03 3.41296918e-03 0. 0. 0. 0. 0. 0. 0. 0. 0. 0. 0. 0.
      0. 0. 0. 0. 0. 0. 0. 0. 2.30375417e-02 0. 0. 8.53242294e-04 0.
      2.55972682e-03 0. 0. 0. 0. 0. 0. 0. 0. 0. 0. 0. 0. 0. 0. 0. 0.
      6.82593836e-03 8.53242294e-04 0. 0. 0. 0. 5.11945365e-03 0. 0. 0.
      0. 0. 0. 0. 0. 0. 0. 0. 0. 0. 2.55972682e-03 0. 5.11945365e-03 0.
      0. 0. 0. 0. 0. 0. 0. 8.53242294e-04 0. 0. 0. 0. 0. 0. 0.
      1.10921497e-02 2.55972682e-03 0. 0. 6.05802014e-02 8.53242294e-04
      8.53242294e-04 0. 1.27986344e-02 0. 0. 0. 0. 3.41296918e-03
      9.12969261e-02 0. 0. 0. 0. 0. 8.53242294e-04 0. 0. 0. 0. 0. 0. 0.
      3.41296918e-03 0. 8.53242294e-04 0. 8.53242294e-04 0. 0. 0. 0. 0.
      0. 0. 0. 4.26621130e-03 2.55972682e-03 0. 0. 0. 5.97269600e-03 0.
      0. 8.53242294e-04 0. 0. 2.55972682e-03 0. 3.41296904e-02 0. 0. 0.
      0. 0. 0. 8.53242294e-04 8.53242294e-04 0. 0. 0. 0. 0.
      3.41296918e-03 0. 0. 4.26621130e-03 0. 0. 0. 0. 0. 0. 0. 0. 0. 0.
      0. 0. 0. 0. 2.55972682e-03 5.97269600e-03 0. 2.47440264e-02 0. 0.
      0. 0. 8.53242294e-04 0. 0. 0. 0. 0. 0. 0. 0. 8.53242294e-04 0. 0.
      0. 0. 0. 0. 0. 0. 0. 0. 0. 0. 0. 0. 0. 8.53242294e-04 0. 0. 0. 0.
      0. 0. 0. 0. 0.</_>
    <_>
      0. 3.72300827e-04 0. 0. 0. 0. 0. 0. 0. 0. 0. 0. 0. 7.44601653e-04
      7.44601653e-04 4.09530895e-03 7.44601653e-04 0. 0. 0. 0. 0. 0. 0.
      0. 3.72300827e-04 0. 0. 1.11690245e-03 0. 1.48920331e-03 0. 0.
      7.44601653e-04 0. 3.72300827e-04 1.48920331e-03 0. 7.44601653e-04
      0. 0. 0. 0. 1.48920331e-03 0. 0. 0. 2.23380490e-03 1.60089359e-02
      0. 0. 2.45718546e-02 0. 0. 0. 0. 0. 1.86150416e-03 0.
      2.60610576e-03 3.61131802e-02 0. 0. 0. 3.72300827e-04
      4.09530895e-03 0. 0. 3.72300827e-04 7.44601653e-04 7.44601665e-03
      7.44601653e-04 0. 0. 0. 0. 1.48920331e-03 1.11690245e-03
      7.44601653e-04 3.72300827e-04 0. 0. 0. 0. 0. 2.23380490e-03
      3.72300827e-04 0. 0. 1.48920331e-03 0. 0. 3.72300827e-04 0.
      1.11690245e-03 0. 0. 2.60610576e-03 0. 0. 1.56366341e-02 0. 0. 0.
      0. 0. 0. 6.32911408e-03 7.44601653e-04 0. 3.72300827e-04
      2.23380490e-03 0. 0. 0. 0. 7.44601653e-04 7.44601653e-04 0.
      2.97840661e-03 0. 0. 0. 0. 0. 1.48920331e-03 0. 0. 0. 0.
      3.35070747e-03 0. 1.00521222e-02 1.11690245e-03 0. 2.60610576e-03
      0. 0. 3.72300827e-04 0. 3.72300827e-04 0. 0. 3.72300827e-04 0. 0.
      0. 0. 3.35070747e-03 0. 5.21221152e-03 0. 3.72300827e-04 0. 0. 0.
      3.72300833e-03 0. 2.60610576e-03 1.07967239e-02 0. 7.44601653e-04
      0. 2.97840661e-03 0. 0. 0. 0. 1.11690245e-03 0. 0. 0.
      3.72300827e-04 0. 0. 0. 1.48920331e-03 0. 0. 7.44601653e-04 0.
      1.11690247e-02 0. 0. 0. 1.86150416e-03 0. 0. 1.11690245e-03
      7.44601653e-04 3.72300827e-04 1.11690245e-03 4.46760980e-03 0. 0.
      5.58451237e-03 1.86150416e-03 0. 7.44601653e-04 0. 0. 0. 0. 0. 0.
      6.70141494e-03 2.97840661e-03 0. 0. 9.30752046e-03 0.
      2.97840661e-03 0. 0. 0. 0. 0. 0. 0. 0. 0. 1.48920331e-03 0. 0. 0.
      6.70141494e-03 0. 1.11690245e-03 4.09530895e-03 0. 0. 0. 0. 0. 0.
      0. 1.86150416e-03 7.44601653e-04 0. 3.72300827e-04 0. 0. 0. 0. 0.
      0. 2.97840661e-03 0. 2.97840661e-03 3.72300833e-03 0.
      2.97840661e-03 0. 0. 0. 0. 0. 0. 0. 0. 0. 0. 3.72300833e-03
      3.72300827e-04 1.11690247e-02 0. 0. 0. 1.86150416e-03
      2.23380490e-03 0. 0. 0. 7.44601653e-04 0. 3.72300827e-04 0. 0. 0.
      0. 6.70141494e-03 3.72300827e-04 2.97840661e-03 0. 1.86150416e-03
      3.72300827e-04 0. 0. 0. 3.72300827e-04 1.11690245e-03
      3.72300833e-03 0. 0. 2.60610576e-03 0. 0. 1.48920331e-03 0. 0. 0.
      4.09530895e-03 0. 0. 0. 0. 0. 9.67982132e-03 0. 0. 0.
      3.72300827e-04 8.56291875e-03 0. 0. 0. 1.11690245e-03 0. 0.
      3.72300827e-04 0. 0. 0. 0. 0. 0. 0. 0. 0. 1.48920331e-03 0. 0. 0.
      0. 0. 3.35070747e-03 0. 1.11690245e-03 0. 3.72300833e-03
      3.72300827e-04 1.48920331e-03 0. 0. 0. 0. 0. 5.58451237e-03 0.
      6.70141494e-03 1.11690245e-03 4.83991066e-03 0. 0. 3.72300827e-04
      9.67982132e-03 0. 0. 4.09530895e-03 0. 0. 0. 0. 1.11690245e-03 0.
      0. 0. 3.35070747e-03 0. 0. 0. 1.11690245e-03 0. 0. 0. 0. 0.
      4.09530895e-03 0. 0. 0. 0. 0. 1.97319444e-02 0. 7.44601653e-04
      3.72300827e-04 7.44601653e-04 0. 0. 0. 0. 0. 0. 0. 0. 0. 0. 0.
      2.23380490e-03 0. 0. 3.35070747e-03 3.12732682e-02 0. 0.
      1.11690245e-03 7.44601653e-04 0. 0. 7.07371579e-03 0.
      3.72300833e-03 0. 0. 0. 1.11690245e-03 0. 1.86150416e-03 0. 0.
      2.97840661e-03 7.44601653e-04 0. 0. 0. 0. 0. 0. 0. 1.11690245e-03
      0. 0. 0. 0. 0. 0. 0. 0. 1.11690245e-03 3.72300833e-03 0.
      3.72300827e-04 0. 0. 7.44601653e-04 0. 0. 1.86150416e-03 0. 0. 0.
      0. 0. 9.67982132e-03 0. 0. 0. 1.11690245e-03 0. 3.72300827e-04 0.
      0. 0. 0. 7.44601665e-03 0. 0. 0. 0. 0. 0. 0. 5.21221152e-03
      5.58451237e-03 0. 0. 0. 0. 1.48920331e-03 0. 0. 0. 0.
      3.72300827e-04 0. 0. 0. 0. 0. 0. 2.23380490e-03 3.72300827e-04 0.
      1.11690245e-03 7.44601653e-04 0. 0. 1.11690245e-03 0. 0. 0. 0. 0.
      0. 0. 0. 5.58451237e-03 0. 0. 0. 0. 1.11690245e-03 0.
      5.21221152e-03 3.72300827e-04 0. 3.72300827e-04 0. 0. 0. 0.
      3.35070747e-03 0. 0. 1.86150416e-03 0. 3.35070747e-03 0. 0. 0.
      1.11690245e-03 0. 0. 0. 0. 0. 0. 0. 0. 0. 0. 2.01042444e-02 0. 0.
      1.11690245e-03 0. 2.60610576e-03 1.11690245e-03 0. 3.72300827e-04
      0. 0. 7.44601653e-04 2.97840661e-03 0. 5.21221152e-03 0.
      6.32911408e-03 0. 3.72300827e-04 1.11690247e-02 0. 0. 0. 0. 0. 0.
      3.72300827e-04 2.23380490e-03 0. 0. 0. 0. 1.11690245e-03 0. 0. 0.
      0. 0. 0. 0. 1.71258375e-02 3.72300827e-04 0. 1.11690245e-03
      7.44601653e-04 0. 0. 3.72300827e-04 0. 0. 0. 0. 0. 0.
      3.72300827e-04 0. 0. 0. 2.97840661e-03 0. 3.35070747e-03
      3.72300833e-03 0. 1.48920331e-03 0. 0. 0. 0. 0. 1.86150416e-03 0.
      2.60610580e-02 0. 3.35070747e-03 2.23380490e-03 0. 0. 0.
      1.86150416e-03 0. 1.86150416e-03 0. 0. 7.44601653e-04 0. 0. 0. 0.
      0. 1.48920331e-03 0. 0. 0. 0. 0. 0. 0. 2.27103513e-02 0. 0. 0. 0.
      1.11690245e-03 0. 0. 2.23380495e-02 0. 0. 1.71258375e-02 0.
      2.97840661e-03 0. 0. 0. 0. 0. 0. 3.72300827e-04 0. 0.
      3.72300827e-04 0. 0. 7.44601653e-04 1.86150416e-03 3.72300827e-04
      0. 0. 0. 0. 0. 0. 0. 1.67535376e-02 7.44601653e-04 0. 0. 0.
      7.81831704e-03 0. 1.48920331e-03 0. 0. 4.69099060e-02
      7.44601665e-03 0. 0. 0. 1.48920331e-03 7.44601653e-04 0. 0. 0. 0.
      0. 3.72300827e-04 0. 3.64854820e-02 0. 3.72300827e-04
      3.72300833e-03 0. 0. 0. 0. 7.44601665e-03 1.11690245e-03 0. 0.
      3.72300827e-04 2.60610576e-03 9.30752046e-03 0. 0. 0.
      7.44601653e-04 0. 0. 0. 0. 1.11690245e-03 0. 0. 0. 0.
      7.44601653e-04 3.72300827e-04 1.11690245e-03 3.35070747e-03
      4.09530895e-03 3.72300827e-04 1.11690247e-02 2.23380490e-03
      1.86150416e-03 0. 0. 0. 1.48920333e-02 0. 1.11690245e-03
      3.72300827e-04 0. 0. 0. 0. 0. 0. 4.46760980e-03 0. 0. 0. 0.
      2.23380490e-03 5.21221152e-03 1.30305290e-02 3.72300827e-04
      2.30826512e-02 0. 0. 0. 0. 1.48920331e-03 0. 3.72300827e-04 0. 0.
      0. 0. 0. 1.11690245e-03 0. 0. 1.11690245e-03 0. 1.48920331e-03
      3.72300827e-04 1.86150416e-03 7.44601653e-04 0. 7.44601653e-04
      7.44601653e-04 0. 0. 3.72300827e-04 0. 3.72300827e-04 0.
      7.44601653e-04 0. 0. 0. 1.11690245e-03 0. 3.72300827e-04
      3.72300827e-04 0. 0. 0.</_>
    <_>
      1.80342654e-03 0. 0. 0. 0. 9.01713269e-04 0. 0. 0. 0. 0. 0. 0.
      6.31199311e-03 0. 9.01713222e-03 9.01713269e-04 0. 0. 0. 0.
      9.01713269e-04 0. 0. 0. 0. 0. 9.01713269e-04 0. 0. 2.70513981e-03
      9.91884619e-03 1.80342654e-03 1.26239862e-02 0. 4.50856611e-03
      9.01713269e-04 0. 0. 4.50856611e-03 0. 0. 0. 0. 0. 0. 0.
      7.21370615e-03 4.95942309e-02 0. 0. 0. 1.80342654e-03 0. 0. 0. 0.
      0. 0. 0. 0. 0. 0. 0. 0. 0. 0. 1.80342654e-03 0. 9.01713269e-04
      2.70513981e-03 9.01713269e-04 0. 0. 0. 0. 2.70513981e-03 0.
      9.01713269e-04 0. 0. 0. 0. 0. 0. 0. 0. 0. 0. 2.70513981e-03
      9.01713269e-04 0. 1.80342654e-03 1.80342654e-03 1.71325523e-02
      9.01713269e-04 0. 0. 0. 0. 9.01713269e-04 0. 0. 0. 0. 0. 0.
      1.80342654e-03 0. 0. 9.01713269e-04 9.01713269e-04 0. 0. 0. 0. 0.
      0. 0. 0. 1.62308384e-02 0. 0. 0. 9.01713269e-04 0. 0. 0. 0. 0.
      1.80342654e-03 0. 1.44274123e-02 0. 0. 2.70513981e-03 0. 0. 0.
      9.01713269e-04 0. 0. 0. 0. 0. 0. 0. 0. 0. 0. 9.01713222e-03 0.
      9.01713269e-04 0. 0. 0. 0. 0. 9.01713269e-04 1.44274123e-02 0. 0.
      0. 0. 0. 0. 0. 0. 0. 0. 0. 0. 9.01713269e-04 0. 0. 3.60685308e-03
      0. 6.31199311e-03 0. 0. 2.70513981e-03 1.80342654e-03 0.
      9.01713269e-04 0. 0. 0. 0. 0. 9.01713269e-04 0. 6.31199311e-03 0.
      0. 0. 7.21370615e-03 0. 9.01713269e-04 0. 0. 0. 0. 0.
      9.01713269e-04 0. 0. 7.21370615e-03 0. 9.01713269e-04
      5.41027961e-03 0. 9.01713269e-04 0. 0. 0. 0. 0. 0. 0. 0. 0.
      4.50856611e-03 0. 0. 0. 1.98376924e-02 0. 0. 9.01713269e-04 0. 0.
      0. 0. 0. 0. 0. 1.80342654e-03 2.70513981e-03 0. 0. 0. 0. 0. 0.
      2.70513981e-03 0. 3.60685308e-03 9.01713269e-04 3.60685308e-03
      1.80342654e-03 0. 2.70513981e-03 0. 0. 9.01713269e-04 0. 0. 0. 0.
      0. 0. 0. 1.80342654e-03 0. 0. 0. 0. 0. 0. 8.11541919e-03 0. 0. 0.
      0. 0. 0. 0. 0. 0. 0. 0. 0. 2.70513981e-03 0. 0. 2.70513981e-03 0.
      1.80342654e-03 0. 0. 0. 9.01713269e-04 0. 0. 7.21370615e-03 0. 0.
      0. 5.41027961e-03 0. 0. 2.70513981e-03 9.01713269e-04 0.
      9.01713269e-04 0. 0. 0. 3.60685308e-03 9.01713269e-04 0.
      9.01713269e-04 7.21370615e-03 9.01713269e-04 0. 0. 0.
      3.60685308e-03 0. 8.11541919e-03 0. 0. 0. 0. 0. 9.01713269e-04
      1.80342654e-03 0. 0. 0. 0. 9.01713269e-04 0. 0. 0. 0. 0.
      4.50856611e-03 0. 0. 0. 2.70513981e-03 0. 0. 0. 0. 0.
      4.50856611e-03 0. 9.01713269e-04 9.01713269e-04 1.62308384e-02 0.
      0. 9.01713269e-04 0. 0. 0. 0. 0. 0. 0. 0. 5.41027961e-03
      8.11541919e-03 0. 9.01713269e-04 5.41027961e-03 0. 0. 0.
      1.80342654e-03 0. 0. 0. 0. 0. 0. 0. 0. 0. 0. 9.01713269e-04
      9.91884619e-03 1.80342654e-03 0. 9.01713269e-04 0. 0. 0. 0. 0. 0.
      0. 5.41027961e-03 0. 0. 0. 1.80342654e-03 3.60685308e-03 0. 0.
      1.44274123e-02 2.70513981e-03 9.01713269e-04 0. 0. 0. 0. 0. 0. 0.
      9.01713222e-03 0. 0. 0. 8.11541919e-03 0. 9.01713269e-04
      9.01713269e-04 0. 1.80342654e-03 2.70513981e-03 0. 0. 0. 0. 0. 0.
      0. 9.01713269e-04 0. 0. 0. 0. 0. 0. 0. 0. 1.80342654e-03
      1.80342654e-03 0. 6.31199311e-03 9.01713269e-04 0. 1.80342654e-03
      9.01713269e-04 0. 1.08205592e-02 9.01713269e-04 9.01713269e-04 0.
      0. 0. 1.17222723e-02 0. 0. 0. 0. 0. 9.01713269e-04 0. 0. 0. 0.
      3.60685308e-03 0. 0. 3.60685308e-03 0. 0. 0. 0. 2.70513981e-03 0.
      0. 0. 0. 0. 0. 2.70513981e-03 0. 0. 9.01713269e-04 0. 0. 0. 0. 0.
      0. 0. 0. 0. 0. 0. 0. 0. 0. 0. 0. 0. 0. 0. 0. 0. 0. 0. 0. 0. 0. 0.
      0. 9.01713269e-04 0. 1.08205592e-02 0. 0. 0. 0. 0. 9.01713269e-04
      0. 0. 0. 0. 5.41027961e-03 0. 9.01713269e-04 0. 9.01713269e-04 0.
      0. 1.80342654e-03 0. 0. 9.01713269e-04 0. 0. 0. 0. 1.80342654e-03
      0. 1.80342654e-03 0. 0. 4.50856611e-03 0. 4.50856611e-03
      9.91884619e-03 0. 9.01713269e-04 0. 0. 9.01713269e-04
      9.01713269e-04 0. 1.44274123e-02 0. 3.60685308e-03 0.
      5.41027961e-03 5.41027961e-03 0. 0. 0. 0. 0. 1.80342654e-03 0. 0.
      0. 0. 0. 9.01713269e-04 0. 0. 0. 0. 0. 2.70513981e-03
      4.50856611e-03 0. 9.73850340e-02 4.50856611e-03 0. 9.01713269e-04
      3.60685308e-03 0. 1.80342654e-03 0. 0. 0. 9.01713269e-04 0.
      9.01713269e-04 0. 0. 0. 0. 9.01713269e-04 0. 0. 2.70513981e-03
      9.01713269e-04 0. 0. 0. 0. 9.01713269e-04 2.70513981e-03
      1.80342654e-03 0. 0. 3.51668186e-02 1.80342654e-03 9.01713269e-04
      0. 0. 0. 0. 1.80342654e-03 2.70513981e-03 0. 0. 0. 0. 0.
      1.80342654e-03 0. 0. 0. 0. 0. 6.31199311e-03 1.80342654e-03 0. 0.
      0. 1.80342654e-03 1.80342644e-02 0. 0. 0. 0. 3.60685308e-03 0. 0.
      9.01713269e-04 0. 9.01713269e-04 0. 0. 0. 0. 0. 0. 0. 0.
      2.70513981e-03 0. 1.80342654e-03 0. 0. 0. 0. 0. 0. 0. 0. 0. 0. 0.
      0. 4.50856611e-03 9.01713269e-04 2.25428324e-02 2.70513981e-03
      9.01713269e-04 0. 0. 1.80342654e-03 0. 0. 0. 0. 1.62308384e-02
      3.60685308e-03 0. 0. 9.01713269e-04 0. 1.80342654e-03 0. 0. 0. 0.
      0. 0. 0. 1.71325523e-02 0. 0. 9.01713269e-04 9.01713269e-04 0. 0.
      0. 0. 0. 9.01713269e-04 0. 0. 0. 9.01713269e-04 0. 0. 0.
      9.01713269e-04 0. 0. 9.01713269e-04 0. 0. 0. 0. 0. 0. 0. 0. 0.
      9.01713269e-04 1.80342654e-03 0. 1.80342654e-03 9.01713269e-04
      2.70513981e-03 0. 0. 0. 2.70513981e-03 0. 0. 9.01713269e-04 0. 0.
      0. 0. 0. 0. 0. 0. 0. 0. 0. 0. 0. 1.80342644e-02 9.01713269e-04
      8.11541919e-03 0. 2.70513981e-03 0. 4.50856611e-03 0. 0. 0. 0. 0.
      0. 0. 0. 0. 0. 0. 1.35256993e-02 0. 9.01713269e-04 0. 0.
      1.89359784e-02 0. 0. 1.80342654e-03 0. 0. 0. 0. 1.80342654e-03 0.
      1.80342654e-03 0. 9.01713269e-04 0. 0. 0. 9.01713269e-04 0. 0. 0.
      0.</_>
    <_>
      0. 0. 0. 0. 2.08062418e-02 0. 0. 0. 0. 0. 0. 0. 0. 9.75292583e-04
      6.50195056e-04 0. 0. 0. 0. 2.27568275e-03 0. 0. 0. 1.75552666e-02
      0. 0. 0. 0. 0. 0. 0. 3.25097528e-04 3.25097528e-04 0. 0.
      1.43042915e-02 0. 0. 0. 3.77113149e-02 6.50195056e-04
      1.30039011e-03 0. 0. 0. 0. 0. 1.39791938e-02 1.95058517e-03 0. 0.
      4.22626780e-03 1.95058517e-03 0. 3.25097528e-04 0. 0. 0. 0.
      1.95058517e-03 1.85305588e-02 0. 0. 0. 0. 0. 0. 0. 1.30039011e-03
      0. 3.25097528e-04 0. 6.50195056e-04 1.30039011e-03 6.50195056e-04
      0. 0. 0. 0. 9.75292583e-04 0. 0. 0. 3.25097528e-04 0. 0. 0. 0. 0.
      2.27568275e-03 0. 3.25097528e-04 3.57607286e-03 0. 0. 0. 0. 0.
      1.95058517e-03 0. 1.95058510e-02 0. 0. 0. 0. 0. 0. 0. 0. 0. 0. 0.
      0. 0. 0. 0. 0. 0. 1.30039011e-03 0. 0. 3.25097528e-04
      6.50195056e-04 0. 6.50195032e-03 5.20156045e-03 0. 0. 0. 0.
      4.55136551e-03 1.95058517e-03 1.04031209e-02 0. 0. 1.30039011e-03
      0. 0. 0. 1.17035108e-02 0. 0. 0. 0. 0. 0. 0. 0. 0. 0.
      1.82054620e-02 1.39791938e-02 1.30039011e-03 0. 4.22626780e-03
      4.22626780e-03 0. 0. 0. 0. 0. 0. 0. 0. 0. 0. 0. 0. 0. 0.
      3.90117033e-03 0. 0. 0. 0. 0. 0. 0. 0. 3.90117033e-03 0.
      8.77763331e-03 4.55136551e-03 0. 0. 0. 0. 0. 0. 1.30039011e-03 0.
      2.27568275e-03 1.30039011e-03 0. 0. 0. 0. 1.95058517e-03 0. 0. 0.
      6.50195056e-04 3.25097528e-04 0. 0. 1.30039011e-03 1.30039011e-03
      0. 0. 0. 0. 0. 0. 0. 0. 3.25097516e-03 0. 0. 0. 0. 0.
      1.62548758e-03 0. 0. 0. 0. 0. 0. 2.60078022e-03 0. 0. 0. 0. 0. 0.
      0. 1.95058517e-03 0. 3.90117033e-03 0. 0. 0. 0. 9.75292583e-04 0.
      3.25097528e-04 0. 3.25097528e-04 0. 6.50195056e-04 0. 0. 0. 0. 0.
      0. 0. 0. 2.92587769e-03 0. 0. 3.25097528e-04 2.27568275e-03 0. 0.
      0. 0. 0. 0. 3.25097528e-04 0. 0. 0. 0. 1.62548758e-03 0. 0. 0. 0.
      3.25097528e-04 0. 0. 0. 0. 0. 2.21066326e-02 0. 0. 6.50195056e-04
      0. 0. 0. 5.20156045e-03 4.22626780e-03 7.47724297e-03
      3.25097528e-04 0. 0. 0. 0. 0. 0. 0. 2.27568275e-03 0. 0. 0. 0. 0.
      1.95058510e-02 3.25097528e-04 0. 2.30819248e-02 0. 0.
      1.95058517e-03 0. 2.27568275e-03 0. 0. 0. 0. 0. 2.60078022e-03
      6.50195056e-04 0. 0. 7.47724297e-03 6.50195056e-04 6.17685309e-03
      0. 0. 0. 0. 2.92587769e-03 3.25097528e-04 0. 0. 0. 4.55136551e-03
      0. 0. 0. 3.25097528e-04 0. 0. 0. 1.36540961e-02 0. 0. 0.
      3.25097528e-04 2.60078022e-03 3.25097528e-04 0. 0. 0. 0. 0. 0. 0.
      0. 0. 2.27568275e-03 0. 0. 0. 0. 0. 0. 0. 0. 0. 0. 0.
      3.25097528e-04 0. 0. 1.17035108e-02 0. 0. 0. 0. 1.33289983e-02 0.
      1.62548758e-03 1.10533163e-02 0. 0. 0. 0. 0. 0. 0. 0. 0. 0. 0. 0.
      6.50195056e-04 0. 0. 0. 1.04031209e-02 0. 0. 0. 0. 2.60078022e-03
      0. 0. 0. 0. 0. 0. 0. 1.62548758e-03 0. 0. 0. 0. 9.10273101e-03 0.
      0. 0. 0. 0. 0. 2.92587769e-03 0. 3.25097528e-04 0. 1.62548758e-03
      0. 0. 0. 0. 0. 0. 0. 3.25097528e-04 0. 0. 0. 0. 0. 0. 0.
      3.90117033e-03 0. 6.50195056e-04 0. 0. 0. 0. 0. 0. 1.30039011e-03
      9.42782871e-03 0. 5.20156045e-03 1.62548758e-03 3.25097528e-04 0.
      0. 2.21066326e-02 0. 6.50195056e-04 0. 0. 0. 0. 0. 0. 0. 0. 0. 0.
      2.60078022e-03 0. 3.90117033e-03 0. 6.50195056e-04 0. 0. 0. 0. 0.
      0. 0. 0. 1.62548758e-03 3.25097528e-04 0. 0. 1.30039011e-03 0. 0.
      0. 3.25097528e-04 0. 0. 4.55136551e-03 1.30039011e-03
      3.25097516e-02 0. 3.25097528e-04 0. 0. 0. 0. 0. 6.50195056e-04 0.
      0. 0. 0. 0. 0. 2.27568275e-03 0. 0. 0. 0. 0. 0. 0. 0.
      2.92587769e-03 1.95058517e-03 0. 0. 0. 0. 9.75292583e-04 0. 0. 0.
      9.10273101e-03 3.25097528e-04 0. 0. 6.69700876e-02 0. 0.
      1.95058517e-03 0. 0. 2.04811450e-02 0. 0. 0. 0. 5.52665815e-03
      4.22626780e-03 3.25097516e-03 0. 0. 0. 0. 0. 9.75292583e-04
      1.95058517e-03 0. 0. 0. 0. 0. 0. 0. 6.50195056e-04 0. 0. 0. 0. 0.
      0. 3.25097528e-04 0. 0. 0. 0. 1.95058517e-03 0. 0. 0. 0. 0.
      3.25097528e-04 0. 0. 0. 0. 0. 0. 0. 0. 0. 0. 3.25097528e-04
      4.22626780e-03 0. 0. 1.65799744e-02 0. 0. 0. 0. 0. 0. 0. 0. 0.
      3.25097516e-03 0. 0. 0. 0. 0. 0. 0. 0. 0. 0. 0. 0. 0. 0. 0. 0. 0.
      0. 2.27568275e-03 0. 0. 0. 0. 4.87646274e-03 0. 3.25097516e-03
      1.62548758e-03 0. 0. 0. 0. 0. 3.25097516e-03 3.08842659e-02 0. 0.
      3.73862162e-02 0. 2.92587769e-03 0. 0. 0. 9.75292583e-04 0.
      3.25097528e-04 0. 0. 0. 0. 3.57607286e-03 0. 0. 0. 0. 0. 0. 0. 0.
      0. 0. 1.30039011e-03 2.99089719e-02 0. 0. 0. 9.75292583e-04 0. 0.
      0. 1.30039011e-03 0. 8.77763331e-03 0. 0. 0. 0. 0. 1.62548758e-03
      0. 0. 0. 0. 0. 0. 0. 2.60078022e-03 0. 0. 3.25097528e-04 0. 0.
      3.25097528e-04 0. 6.50195056e-04 0. 0. 0. 0. 1.95058517e-03
      3.73862162e-02 0. 0. 0. 7.80234067e-03 0. 0. 0. 3.90117033e-03 0.
      0. 0. 5.52665815e-03 0. 0. 1.07282186e-02 0. 0. 0. 0. 0. 0. 0.
      9.75292583e-04 0. 0. 2.92587769e-03 0. 0. 3.25097528e-04
      1.62548758e-03 0. 0. 0. 0. 0. 0. 0. 0. 0. 0. 0. 0. 0.
      1.62548758e-03 2.60078022e-03 0. 3.25097528e-04 0. 0. 0.
      1.62548758e-03 9.75292583e-04 0. 0. 6.50195056e-04 0. 0. 0. 0. 0.
      0. 0. 3.25097528e-04 0. 2.92587769e-03 0. 0. 9.75292583e-04 0. 0.
      0. 0. 0. 0. 0. 0. 0. 0. 0. 0. 0. 1.43042915e-02 0. 0. 0. 0.</_>
    <_>
      0. 0. 1.01677678e-03 0. 2.54194206e-03 0. 0. 1.01677678e-03 0. 0.
      1.52516516e-03 0. 0. 1.16929328e-02 0. 0. 0. 0. 0. 0. 0. 0. 0. 0.
      0. 0. 1.52516516e-03 0. 0. 1.01677678e-03 0. 0. 0. 0. 0.
      1.67768169e-02 5.08388388e-04 0. 0. 7.62582570e-03 0.
      1.01677682e-02 0. 5.08388388e-04 0. 6.60904916e-03 0.
      1.47432629e-02 2.59278081e-02 0. 0. 5.08388388e-04 0.
      3.55871860e-03 0. 0. 0. 7.11743720e-03 0. 4.06710710e-03
      3.55871860e-03 0. 0. 3.05033033e-03 0. 0. 0. 0. 0. 0. 0. 0.
      2.54194206e-03 0. 0. 0. 0. 0. 0. 5.08388388e-04 0. 0. 0. 0. 0. 0.
      5.08388388e-04 1.01677678e-03 0. 1.01677678e-03 1.42348744e-02
      5.59227215e-03 1.01677678e-03 3.05033033e-03 1.52516516e-03 0.
      5.08388388e-04 0. 0. 0. 9.65937972e-03 0. 7.62582570e-03 0. 0. 0.
      6.10066066e-03 1.01677678e-03 0. 1.01677678e-03 5.08388388e-04 0.
      0. 0. 1.01677678e-03 0. 0. 1.01677678e-03 0. 4.57549561e-03 0.
      5.08388388e-04 0. 0. 0. 2.54194206e-03 0. 0. 3.05033033e-03 0.
      2.03355355e-03 0. 8.64260271e-03 5.08388388e-04 0. 2.54194206e-03
      0. 0. 0. 1.52516516e-03 0. 0. 6.10066066e-03 5.08388388e-04
      3.55871860e-03 0. 0. 0. 0. 5.08388388e-04 4.57549561e-03
      5.08388388e-04 1.01677678e-03 0. 0. 0. 0. 0. 0. 0. 2.03355355e-03
      5.08388388e-04 0. 0. 0. 5.08388388e-04 0. 0. 0. 0. 0.
      5.08388388e-04 0. 6.10066066e-03 0. 0. 0. 0. 0. 2.03355355e-03 0.
      1.52516516e-03 0. 0. 0. 0. 0. 5.08388388e-04 2.54194206e-03
      6.10066066e-03 4.57549561e-03 7.11743720e-03 6.60904916e-03 0. 0.
      0. 0. 4.06710710e-03 0. 0. 4.06710710e-03 0. 0. 0. 0. 0. 0. 0. 0.
      0. 0. 9.15099122e-03 0. 0. 0. 1.01677678e-03 0. 0. 0.
      2.03355355e-03 3.05033033e-03 0. 0. 1.52516516e-03 0. 0. 0. 0.
      7.62582570e-03 0. 0. 0. 0. 0. 0. 0. 5.08388388e-04 0.
      2.03355355e-03 0. 4.06710710e-03 0. 3.55871860e-03 0. 0. 0. 0. 0.
      0. 0. 2.54194206e-03 0. 0. 0. 0. 0. 0. 0. 0. 0. 1.01677678e-03 0.
      2.13523116e-02 0. 0. 0. 0. 0. 5.08388388e-04 1.52516516e-03
      2.03355355e-03 0. 0. 5.08388388e-04 0. 0. 0. 0. 0. 2.03355355e-03
      0. 1.52516516e-03 0. 0. 5.08388388e-04 0. 0. 0. 0. 0. 0.
      5.08388388e-04 2.03355355e-03 1.01677678e-03 5.08388388e-04 0. 0.
      0. 0. 0. 0. 0. 0. 0. 0. 1.52516516e-03 0. 0. 1.01677678e-03
      2.03355355e-03 0. 6.60904916e-03 2.03355365e-02 1.01677678e-03 0.
      0. 3.05033033e-03 0. 0. 6.10066066e-03 0. 1.11845443e-02 0.
      1.01677678e-03 0. 0. 0. 1.01677678e-03 5.08388388e-04
      1.01677678e-03 0. 0. 0. 0. 0. 0. 0. 3.55871860e-03 5.08388388e-04
      0. 0. 0. 0. 0. 0. 3.55871860e-03 5.08388388e-04 5.59227215e-03 0.
      3.05033033e-03 5.08388388e-04 2.03355355e-03 0. 0. 1.52516516e-03
      0. 0. 0. 2.54194206e-03 0. 0. 0. 0. 0. 3.55871860e-03 0. 0. 0.
      1.01677678e-03 0. 0. 5.08388388e-04 5.08388388e-04 0.
      1.52516516e-03 3.55871860e-03 0. 0. 0. 0. 0. 5.08388388e-04 0.
      2.03355355e-03 0. 1.32180983e-02 3.05033033e-03 0. 0.
      2.03355355e-03 0. 8.13421421e-03 0. 5.08388388e-04 1.52516516e-03
      0. 0. 1.52516516e-03 0. 1.16929328e-02 0. 0. 0. 9.15099122e-03 0.
      0. 0. 5.08388388e-04 0. 0. 2.03355355e-03 0. 0. 0. 0.
      1.01677678e-03 2.03355355e-03 0. 4.06710710e-03 0. 0.
      5.08388388e-04 0. 0. 0. 0. 0. 4.57549561e-03 2.54194206e-03 0. 0.
      1.01677678e-03 0. 0. 3.05033033e-03 5.08388388e-04 0. 0. 0.
      2.03355355e-03 5.08388388e-04 5.08388388e-04 0. 0. 0. 0. 0. 0.
      6.60904916e-03 0. 0. 2.03355355e-03 0. 0. 0. 0. 1.52516516e-03 0.
      1.01677682e-02 1.01677678e-03 1.01677678e-03 4.57549561e-03 0. 0.
      0. 6.10066066e-03 0. 1.01677678e-03 3.05033033e-03 0. 0. 0. 0. 0.
      2.54194206e-03 0. 3.05033033e-03 0. 5.08388388e-04 0.
      3.05033033e-03 0. 0. 0. 0. 0. 1.52516516e-03 0. 0. 7.62582570e-03
      0. 8.13421421e-03 0. 2.54194206e-03 6.10066066e-03 3.05033033e-03
      0. 1.01677678e-03 0. 0. 0. 0. 0. 0. 0. 0. 2.54194206e-03 0. 0. 0.
      0. 5.08388388e-04 1.01677678e-03 0. 0. 0. 2.03355355e-03 0. 0. 0.
      0. 0. 1.52516516e-03 0. 2.03355355e-03 0. 0. 0. 1.01677678e-03
      5.08388388e-04 0. 0. 0. 0. 0. 0. 0. 0. 8.64260271e-03 0. 0. 0.
      3.05033033e-03 0. 0. 3.55871860e-03 0. 5.08388388e-04
      8.13421421e-03 5.08388388e-04 6.10066066e-03 0. 0. 5.08388388e-04
      1.52516516e-03 0. 0. 0. 0. 5.08388388e-04 1.62684284e-02
      1.01677678e-03 0. 3.55871860e-03 2.03355355e-03 5.08388388e-04 0.
      0. 0. 1.52516516e-03 0. 5.08388388e-04 1.52516516e-03 0.
      5.08388388e-04 0. 0. 1.52516516e-03 0. 1.01677678e-03 0. 0.
      1.52516516e-03 2.54194206e-03 0. 0. 0. 0. 3.05033033e-03 0.
      1.01677678e-03 0. 2.03355355e-03 0. 0. 0. 0. 0. 0. 1.01677678e-03
      0. 5.08388388e-04 0. 6.04982190e-02 0. 0. 1.01677678e-03 0. 0. 0.
      0. 3.55871860e-03 0. 2.33858656e-02 1.01677678e-03 5.08388388e-04
      5.08388388e-04 0. 0. 0. 0. 0. 4.06710710e-03 0. 1.52516516e-03 0.
      0. 0. 0. 0. 0. 0. 5.08388411e-03 1.52516516e-03 0. 5.08388388e-04
      0. 8.64260271e-03 1.52516516e-03 3.05033033e-03 0. 0. 0. 0. 0. 0.
      4.57549561e-03 4.57549561e-03 0. 0. 0. 0. 6.60904916e-03 0. 0.
      1.01677678e-03 0. 0. 0. 0. 0. 0. 1.01677678e-03 1.01677678e-03 0.
      0. 0. 0. 0. 0. 0. 0. 0. 0. 2.03355355e-03 1.11845443e-02 0. 0. 0.
      5.08388388e-04 6.10066066e-03 0. 0. 5.08388388e-04 3.05033033e-03
      2.08439231e-02 0. 8.13421421e-03 0. 0. 0. 0. 0. 2.54194206e-03
      5.59227215e-03 0. 0. 0. 3.55871860e-03 0. 0. 0. 1.01677678e-03 0.
      0. 3.05033033e-03 0. 0. 1.01677678e-03 5.08388388e-04 0. 0.
      3.55871860e-03 4.06710710e-03 0. 0. 0. 4.57549561e-03
      3.55871860e-03 5.59227215e-03 0. 0. 5.08388388e-04 0. 0.
      7.11743720e-03 2.03355355e-03 0. 1.01677678e-03 5.08388411e-03
      2.03355355e-03 0. 0. 6.10066066e-03 0. 0. 0. 0. 0. 1.16929328e-02
      0. 1.01677682e-02 5.08388411e-03 1.52516516e-03 0. 0. 0. 0. 0.
      1.01677678e-03 3.55871860e-03 0. 0. 0. 0. 0. 5.08388388e-04
      2.54194206e-03 2.54194206e-03 5.08388388e-04 4.06710710e-03
      5.08388388e-04 0. 0. 2.03355355e-03 0. 0. 0. 0. 0. 0.
      1.01677678e-03 0. 0. 0. 0. 0. 0. 5.08388388e-04 0. 0.
      2.03355355e-03 5.08388388e-04 2.03355355e-03 5.08388388e-04 0.
      8.64260271e-03 5.08388388e-04 0. 0. 0. 0. 5.08388388e-04 0. 0.
      6.10066066e-03 0. 2.03355355e-03 0. 5.08388388e-04</_>
    <_>
      2.21926323e-03 0. 8.87705304e-04 0. 7.10164243e-03 0. 0. 0. 0. 0.
      0. 0. 0. 3.10696848e-03 0. 1.77541061e-03 4.43852652e-04 0. 0.
      2.21926323e-03 0. 4.43852652e-04 0. 4.43852652e-04 0. 0. 0. 0. 0.
      0. 0. 4.43852652e-04 0. 3.99467396e-03 0. 5.32623194e-03
      4.43852652e-04 0. 0. 2.04172228e-02 0. 7.10164243e-03 0.
      3.10696848e-03 0. 4.43852652e-04 0. 1.77541061e-03 6.21393695e-03
      0. 0. 0. 0. 4.43852652e-04 5.32623194e-03 0. 1.77541061e-03 0. 0.
      4.43852652e-04 0. 0. 0. 0. 0. 4.43852652e-04 0. 4.43852652e-04 0.
      3.99467396e-03 2.66311597e-03 0. 0. 0. 0. 0. 0. 5.32623194e-03
      4.43852652e-04 0. 0. 8.87705304e-04 0. 2.21926323e-03 0. 0. 0. 0.
      0. 1.55348424e-02 0. 0. 0. 0. 5.32623194e-03 0. 0. 0.
      4.43852652e-04 0. 1.50909899e-02 0. 0. 0. 0. 0. 0. 4.43852652e-04
      1.33155799e-03 0. 0. 1.77541059e-02 0. 0. 4.43852652e-04 0.
      8.87705304e-04 0. 0. 0. 8.87705304e-04 8.87705304e-04
      1.33155799e-03 0. 3.10696848e-03 0. 0. 0. 4.43852652e-04 0.
      4.43852652e-04 0. 1.02086114e-02 0. 0. 0. 0. 0. 3.99467396e-03
      8.87705304e-04 0. 0. 8.87705304e-04 0. 0. 0. 0. 0. 0. 0.
      6.65778993e-03 0. 2.21926323e-03 0. 0. 0. 0. 0. 8.87705304e-04
      8.87705304e-04 0. 8.87705304e-04 0. 0. 6.65778993e-03 0. 0. 0. 0.
      0. 0. 0. 0. 0. 0. 1.33155799e-03 3.95028852e-02 0. 0.
      8.87705304e-04 0. 6.21393695e-03 8.87705304e-04 4.43852652e-04 0.
      0. 0. 0. 0. 3.10696848e-03 0. 1.50909899e-02 4.43852646e-03 0. 0.
      0. 4.43852652e-04 1.33155799e-03 4.43852652e-04 0. 0. 0. 0.
      4.43852652e-04 0. 7.54549494e-03 0. 0. 0. 0. 0. 4.43852652e-04 0.
      0. 0. 6.21393695e-03 0. 0. 0. 0. 0. 0. 0. 0. 0. 4.43852652e-04 0.
      0. 0. 0. 0. 0. 0. 0. 0. 0. 3.10696848e-03 9.32090543e-03 0. 0. 0.
      0. 0. 0. 0. 0. 3.55082122e-03 0. 3.10696848e-03 0. 0.
      8.87705304e-04 0. 0. 0. 0. 0. 4.43852646e-03 0. 0. 1.33155799e-03
      0. 5.77008445e-03 0. 4.43852652e-04 0. 0. 0. 0. 0. 4.43852652e-04
      0. 0. 4.43852652e-04 0. 0. 0. 0. 0. 4.43852652e-04 3.55082122e-03
      0. 2.21926323e-03 0. 0. 0. 0. 2.21926323e-03 0. 0. 0. 0. 0. 0. 0.
      8.87705304e-04 8.87705304e-04 0. 4.88237897e-03 0. 0.
      1.33155799e-03 0. 3.99467396e-03 0. 0. 0. 0. 3.55082122e-03
      2.04172228e-02 2.21926323e-03 0. 7.27918372e-02 0. 4.43852652e-04
      0. 0. 1.77541061e-03 0. 2.21926323e-03 0. 0. 0. 4.43852652e-04
      4.43852652e-04 1.77541061e-03 0. 4.43852652e-04 3.10696848e-03
      2.21926323e-03 0. 0. 0. 0. 3.10696848e-03 0. 0. 1.33155799e-03 0.
      2.21926323e-03 0. 0. 0. 0. 0. 0. 0. 3.46205086e-02 0.
      2.66311597e-03 0. 1.64225474e-02 0. 0. 1.77541061e-03 0. 0. 0.
      4.88237897e-03 0. 0. 0. 0. 1.77541061e-03 0. 0. 0. 0. 0. 0. 0.
      4.43852652e-04 0. 0. 0. 0. 0. 0. 0. 0. 0. 8.87705304e-04
      8.87705304e-04 1.64225474e-02 0. 2.13049278e-02 4.43852652e-04 0.
      3.55082122e-03 0. 0. 0. 0. 4.43852652e-04 0. 0. 0. 0.
      1.77541061e-03 4.43852652e-04 0. 0. 8.87705304e-04 7.10164243e-03
      0. 0. 0. 0. 4.43852652e-04 0. 0. 0. 8.87705304e-04 0. 0. 0.
      4.43852652e-04 0. 0. 0. 0. 1.33155799e-03 0. 0. 0. 0. 0. 0. 0. 0.
      8.87705304e-04 0. 0. 0. 0. 0. 3.10696848e-03 0. 0. 2.66311597e-03
      2.66311597e-03 0. 0. 0. 0. 2.66311597e-03 0. 0. 4.88237897e-03 0.
      4.43852652e-04 0. 0. 0. 0. 0. 0. 0. 4.43852652e-04 0.
      4.43852646e-03 0. 8.87705304e-04 0. 0. 8.87705293e-03 0.
      4.43852652e-04 0. 0. 0. 0. 1.33155799e-03 0. 6.21393695e-03 0. 0.
      0. 0. 0. 0. 0. 0. 4.43852652e-04 0. 0. 0. 0. 0. 4.43852652e-04 0.
      0. 3.99467396e-03 0. 0. 4.43852652e-04 0. 4.43852652e-04 0. 0.
      4.43852652e-04 4.43852652e-04 4.43852652e-04 4.43852652e-04
      1.33155799e-03 0. 0. 0. 0. 0. 0. 0. 5.77008445e-03 0.
      2.66311597e-03 0. 0. 0. 0. 0. 1.15401689e-02 0. 0. 0. 0.
      2.21926323e-03 0. 8.87705304e-04 1.77541061e-03 0. 0. 0. 0. 0. 0.
      0. 0. 0. 4.43852646e-03 0. 5.77008445e-03 0. 5.77008445e-03 0. 0.
      8.87705304e-04 0. 2.66311597e-03 3.99467396e-03 0. 0. 0. 0. 0. 0.
      1.77541059e-02 3.99467396e-03 0. 4.43852652e-04 0. 3.99467396e-03
      2.17487793e-02 0. 0. 0. 0. 0. 0. 8.87705304e-04 1.77541061e-03
      4.43852652e-04 0. 0. 0. 0. 0. 0. 0. 0. 8.87705304e-04
      1.33155799e-03 0. 5.41500226e-02 0. 0. 0. 8.87705304e-04
      3.10696848e-03 0. 3.55082122e-03 0. 0. 0. 0. 0. 0. 8.43320042e-03
      0. 0. 4.43852652e-04 0. 0. 0. 1.19840214e-02 0. 1.42032849e-02 0.
      0. 8.87705304e-04 0. 0. 0. 0. 1.55348424e-02 0. 1.77541061e-03 0.
      0. 0. 0. 1.77541061e-03 0. 0. 0. 0. 0. 0. 0. 0. 0. 0. 0.
      4.43852652e-04 2.66311597e-03 0. 0. 0. 0. 0. 9.32090543e-03 0. 0.
      0. 0. 0. 0. 0. 3.10696848e-03 0. 0. 0. 0. 8.87705304e-04 0.
      2.66311597e-03 0. 0. 0. 8.87705304e-04 0. 0. 0. 0. 4.88237897e-03
      1.33155799e-03 4.43852652e-04 0. 0. 0. 0. 8.87705304e-04 0.
      8.87705304e-04 1.33155799e-03 8.87705304e-04 3.10696848e-02
      4.43852652e-04 0. 0. 0. 0. 0. 0. 0. 0. 3.41766551e-02
      8.87705304e-04 0. 4.43852652e-04 0. 1.33155799e-03 2.21926323e-03
      0. 0. 0. 8.87705304e-04 0. 0. 0. 0. 0. 4.88237897e-03 0. 0. 0. 0.
      0. 3.10696848e-03 0. 4.43852652e-04 1.33155799e-03 0.
      2.21926323e-03 4.43852652e-04 0. 0. 0. 1.33155799e-03 0. 0. 0. 0.
      0. 0. 0. 1.77541061e-03 0. 0. 3.10696848e-03 0. 0. 0.
      4.43852652e-04 8.87705304e-04 0. 0. 0. 0. 0. 8.87705304e-04 0. 0.
      8.87705304e-04 2.66311597e-03 0. 0. 8.87705304e-04 0. 0.
      4.43852652e-04 0. 0. 0. 0. 0. 0. 0. 3.10696848e-03 5.77008445e-03
      0. 3.55082122e-03 0. 0. 0. 4.43852652e-04 0. 0. 0. 7.54549494e-03
      0. 0. 0. 1.33155799e-03 0. 4.43852652e-04 0. 0. 2.66311597e-03 0.
      5.32623194e-03 0. 0. 0. 0. 0. 0. 0. 0. 0. 0. 0. 0. 8.87705304e-04
      0. 0. 1.33155799e-03 8.87705304e-04 0. 0. 0.</_>
    <_>
      0. 0. 1.27099417e-02 0. 0. 0. 0. 0. 0. 0. 0. 0. 0. 1.72492061e-02
      0. 0. 0. 0. 6.35497086e-03 1.08942352e-02 0. 1.81570591e-03
      2.26963242e-03 0. 0. 0. 4.53926477e-04 0. 0. 0. 0. 8.17067642e-03
      2.26963242e-03 0. 0. 5.44711761e-03 4.53926477e-04 0. 0.
      1.36177940e-03 0. 2.72355881e-03 0. 0. 0. 0. 4.53926477e-04
      9.07852955e-04 0. 0. 0. 1.81570591e-03 4.99319145e-03 0. 0.
      4.53926477e-04 1.36177940e-03 0. 0. 3.63141182e-03 2.26963242e-03
      0. 9.07852955e-04 0. 0. 0. 0. 8.17067642e-03 0. 0. 0. 0. 0. 0. 0.
      0. 0. 0. 0. 0. 0. 4.53926477e-04 0. 0. 0. 0. 0. 0. 3.63141182e-03
      4.53926477e-04 0. 1.04403086e-02 0. 0. 0. 0. 0. 0. 0. 0. 0. 0. 0.
      9.07852955e-04 4.53926477e-04 0. 0. 0. 0. 0. 0. 4.53926477e-04 0.
      0. 3.17748543e-03 0. 0. 0. 0. 0. 0. 4.53926477e-04 0. 0.
      4.53926483e-03 3.17748543e-03 0. 0. 0. 0. 0. 4.08533821e-03 0. 0.
      0. 0. 0. 0. 4.53926477e-04 4.53926477e-04 4.53926477e-04 0. 0. 0.
      0. 0. 1.36177940e-03 0. 0. 0. 0. 2.72355881e-03 6.80889701e-03 0.
      4.53926477e-04 0. 6.35497086e-03 0. 0. 0. 0. 0. 0. 0. 0. 0. 0. 0.
      0. 0. 0. 0. 3.40444855e-02 0. 0. 0. 4.08533821e-03 0.
      9.07852955e-04 1.36177940e-03 5.44711761e-03 2.95052212e-02
      1.04403086e-02 0. 0. 0. 0. 0. 0. 0. 0. 2.17884704e-02 0. 0. 0. 0.
      0. 0. 0. 0. 0. 0. 0. 0. 0. 0. 0. 0. 0. 2.26963242e-03
      4.53926477e-04 4.53926477e-04 0. 0. 9.07852955e-04 4.53926477e-04
      3.17748543e-03 0. 0. 0. 0. 0. 0. 0. 4.53926477e-04 0. 0. 0.
      5.44711761e-03 0. 1.36177940e-03 0. 0. 0. 0. 5.44711761e-03 0. 0.
      9.07852955e-04 0. 0. 0. 0. 9.07852955e-04 0. 0. 0. 0. 0.
      2.72355881e-03 0. 0. 0. 9.07852955e-04 0. 0. 4.53926477e-04
      6.35497086e-03 0. 0. 0. 0. 0. 0. 0. 0. 0. 4.53926477e-04 0. 0. 0.
      0. 0. 0. 2.26963242e-03 0. 0. 0. 0. 0. 0. 0. 0. 0. 0.
      4.03994583e-02 0. 0. 2.26963242e-03 0. 9.07852955e-04 0.
      3.17748543e-03 0. 4.08533821e-03 0. 0. 0. 0. 0. 0. 0.
      8.62460304e-03 0. 0. 1.36177940e-03 0. 0. 1.36177940e-03
      1.49795739e-02 2.72355881e-03 0. 8.62460304e-03 0. 0.
      4.08533821e-03 0. 0. 4.53926477e-04 0. 0. 0. 0. 0. 4.40308675e-02
      0. 0. 7.26282364e-03 0. 1.36177940e-03 0. 0. 0. 0. 1.99727658e-02
      0. 0. 0. 0. 0. 0. 0. 0. 4.53926477e-04 0. 0. 2.72355881e-03
      1.36177940e-03 1.81570591e-03 0. 4.53926477e-04 9.07852955e-04 0.
      0. 1.81570591e-03 0. 0. 4.53926477e-04 9.53245629e-03 0. 0. 0. 0.
      0. 0. 0. 0. 0. 0. 0. 0. 0. 0. 0. 0. 1.36177940e-03 0. 0.
      1.13481618e-02 4.53926483e-03 0. 0. 0. 1.77031327e-02
      1.36177940e-03 0. 0. 0. 4.53926477e-04 0. 0. 9.07852955e-04 0. 0.
      0. 0. 0. 0. 9.07852955e-04 2.49659568e-02 0. 0. 0. 4.53926477e-04
      0. 0. 0. 0. 0. 0. 0. 0. 0. 0. 2.26963242e-03 0. 0. 0. 0. 0. 0. 0.
      0. 0. 4.53926477e-04 0. 0. 0. 0. 0. 0. 0. 9.07852955e-04 0.
      1.36177940e-03 0. 0. 0. 0. 0. 6.35497086e-03 0. 1.81570591e-03
      9.07852966e-03 0. 0. 0. 4.53926477e-04 2.72355881e-03 0. 0. 0. 0.
      0. 4.53926477e-04 0. 0. 0. 0. 4.53926477e-04 0. 5.90104423e-03
      4.53926477e-04 0. 0. 1.18020885e-02 0. 0. 0. 0. 0. 4.99319145e-03
      0. 4.53926477e-04 0. 0. 0. 0. 1.36177940e-03 0. 0. 0. 0.
      3.44984122e-02 0. 0. 0. 0. 0. 0. 0. 4.53926477e-04 0. 0. 0. 0. 0.
      0. 0. 9.07852955e-04 9.07852955e-04 0. 0. 0. 1.77031327e-02 0.
      4.53926477e-04 0. 0. 4.53926477e-04 9.07852955e-04 0. 0. 0. 0. 0.
      0. 1.36177940e-03 0. 8.17067642e-03 0. 0. 0. 0. 0. 0. 0. 0. 0. 0.
      4.53926477e-04 0. 0. 0. 4.53926477e-04 0. 9.07852955e-04 0.
      8.17067642e-03 0. 0. 0. 4.53926477e-04 0. 0. 1.36177940e-03 0. 0.
      2.26963237e-02 0. 0. 0. 0. 1.36177940e-03 1.81570593e-02
      1.81570591e-03 0. 0. 0. 4.53926477e-04 0. 1.36177940e-03 0.
      2.72355881e-03 0. 0. 0. 0. 0. 0. 0. 0. 0. 0. 0. 0. 0. 0. 0.
      4.53926477e-04 0. 0. 0. 3.17748543e-03 0. 0. 0. 0. 1.36177940e-03
      0. 0. 0. 1.36177940e-03 0. 4.53926477e-04 0. 0. 9.07852955e-04 0.
      4.53926477e-04 0. 9.07852955e-04 0. 0. 0. 9.07852955e-04 0. 0. 0.
      1.81570591e-03 1.08942352e-02 0. 0. 0. 4.53926477e-04 0. 0. 0. 0.
      0. 0. 0. 0. 0. 4.53926477e-04 0. 0. 0. 0. 0. 0. 0. 0. 0. 0. 0. 0.
      4.22151610e-02 0. 0. 0. 0. 0. 1.36177940e-03 0. 0. 0. 0. 0. 0.
      4.99319145e-03 0. 9.07852955e-04 0. 0. 0. 4.53926477e-04 0.
      3.63141182e-03 0. 0. 0. 0. 0. 0. 1.81570591e-03 0. 0. 0. 0. 0. 0.
      0. 0. 4.99319145e-03 1.36177940e-03 0. 0. 0. 4.08533821e-03
      4.08533821e-03 0. 0. 4.08533821e-03 0. 1.81570591e-03 0.
      6.35497086e-03 0. 0. 4.31230143e-02 0. 0. 0. 0. 0. 0. 0. 0. 0. 0.
      0. 1.36177940e-03 2.72355881e-03 0. 0. 0. 1.63413528e-02 0.
      4.53926477e-04 5.90104423e-03 0. 2.72355881e-03 3.67680453e-02 0.
      2.26963242e-03 0. 1.77031327e-02 0. 4.53926477e-04 0.
      7.26282364e-03 0. 9.07852955e-04 0. 4.99319145e-03 0. 0.
      4.99319145e-03 0. 0. 0. 0. 0. 0. 0. 0. 0. 0. 0. 0. 0.
      2.72355881e-03 9.07852955e-04 0. 0. 0. 1.36177940e-03 0. 0. 0. 0.
      0. 0. 0. 0. 0. 1.81570591e-03 4.53926477e-04 0. 2.72355881e-03 0.
      0. 0. 0. 0. 0. 0. 9.53245629e-03 0. 0. 0. 0. 0. 9.07852955e-04 0.
      3.17748543e-03 0. 2.26963242e-03 0. 0. 1.81570591e-03 0. 0. 0. 0.
      4.53926477e-04 0. 0. 0. 0. 0. 0. 0. 0. 0. 0. 0. 0. 0.</_>
    <_>
      0. 1.40350882e-03 0. 7.01754412e-04 3.50877200e-03 3.50877200e-03
      0. 0. 0. 7.01754412e-04 0. 0. 0. 9.12280753e-03 0. 0. 0. 0. 0. 0.
      0. 0. 7.01754412e-04 4.21052659e-03 0. 0. 0. 0. 0. 1.40350882e-03
      0. 0. 0. 5.61403530e-03 0. 7.01754412e-04 2.10526329e-03
      7.01754412e-04 0. 9.12280753e-03 1.40350882e-03 0. 8.42105318e-03
      0. 0. 0. 0. 3.50877200e-03 1.40350882e-03 9.12280753e-03 0.
      7.01754412e-04 1.40350882e-03 0. 7.01754412e-04 0. 0. 0.
      7.01754412e-04 7.01754412e-04 0. 0. 0. 0. 0. 0. 0. 0. 0. 0. 0.
      7.01754412e-04 0. 0. 1.40350882e-03 0. 0. 0. 0. 1.40350882e-03 0.
      0. 0. 0. 0. 0. 0. 7.01754412e-04 0. 1.40350882e-03 3.50877200e-03
      1.40350882e-03 1.40350882e-03 0. 1.40350882e-03 0. 0.
      3.50877200e-03 1.40350882e-03 7.01754412e-04 2.80701765e-03 0.
      7.01754412e-04 0. 0. 0. 9.82456189e-03 2.10526329e-03 0. 0. 0. 0.
      0. 0. 0. 0. 7.01754412e-04 0. 0. 0. 0. 0. 4.21052659e-03 0. 0.
      7.01754412e-04 0. 0. 0. 0. 0. 0. 1.12280706e-02 0. 0.
      1.82456151e-02 0. 0. 0. 0. 0. 0. 1.40350882e-03 0. 0. 0. 0. 0.
      1.40350882e-03 7.01754412e-04 0. 1.40350882e-03 0. 0. 0. 0. 0. 0.
      0. 1.05263162e-02 0. 1.40350882e-03 0. 7.01754412e-04 0. 0. 0. 0.
      7.01754412e-04 0. 0. 0. 2.80701765e-03 0. 0. 0. 0. 0. 0. 0. 0.
      2.80701765e-03 0. 0. 0. 0. 7.01754412e-04 0. 1.40350882e-03
      7.01754412e-04 7.01754412e-04 2.66666673e-02 0. 0. 0.
      2.10526329e-03 0. 0. 1.40350882e-03 0. 0. 0. 0. 0. 0.
      2.10526329e-03 8.42105318e-03 0. 0. 0. 0. 2.10526329e-03
      2.10526329e-03 0. 0. 0. 0. 7.01754412e-04 1.40350882e-03
      7.01754412e-04 0. 0. 7.01754412e-04 0. 0. 2.80701765e-03 0. 0. 0.
      0. 0. 0. 7.01754412e-04 0. 7.01754412e-04 7.01754412e-04
      2.10526329e-03 3.50877200e-03 0. 0. 0. 0. 1.40350882e-03 0.
      2.10526329e-03 0. 4.21052659e-03 0. 7.01754412e-04 0.
      7.01754412e-04 0. 0. 0. 0. 0. 0. 0. 0. 0. 7.01754412e-04 0.
      2.80701765e-03 0. 0. 0. 0. 0. 0. 7.71929836e-03 0. 0. 0. 0. 0. 0.
      7.01754412e-04 0. 0. 0. 7.01754412e-04 2.80701765e-03
      7.01754412e-04 0. 0. 0. 0. 2.10526329e-03 0. 0. 0. 4.91228094e-03
      0. 0. 3.50877200e-03 0. 0. 0. 0. 0. 2.10526329e-03 7.01754401e-03
      0. 1.40350882e-03 1.40350882e-03 0. 7.01754412e-04 2.10526329e-03
      7.01754412e-04 3.50877200e-03 7.01754412e-04 1.26315793e-02
      9.82456189e-03 1.40350882e-03 0. 0. 0. 0. 0. 5.61403530e-03
      4.91228094e-03 0. 0. 0. 1.40350882e-03 0. 1.40350882e-03 0. 0. 0.
      0. 0. 0. 0. 3.50877200e-03 3.50877200e-03 0. 2.80701765e-03 0. 0.
      4.21052659e-03 0. 0. 0. 7.01754412e-04 0. 1.40350882e-03
      7.01754412e-04 0. 0. 0. 7.01754401e-03 0. 0. 2.10526329e-03 0. 0.
      7.01754412e-04 4.21052659e-03 0. 0. 0. 0. 0. 0. 0. 0.
      4.21052659e-03 0. 0. 7.01754412e-04 9.82456189e-03 0. 0. 0.
      1.40350882e-03 1.40350882e-03 0. 0. 7.01754412e-04 1.40350882e-03
      0. 0. 1.05263162e-02 0. 2.94736847e-02 3.50877200e-03 0.
      4.91228094e-03 0. 0. 2.80701765e-03 0. 3.50877200e-03 0. 0. 0.
      1.40350882e-03 2.10526329e-03 9.82456189e-03 0. 0. 0.
      8.42105318e-03 7.01754412e-04 0. 0. 7.01754412e-04 0. 0.
      4.91228094e-03 0. 1.40350882e-03 0. 0. 0. 7.01754412e-04 0.
      2.10526329e-03 0. 0. 0. 0. 7.01754412e-04 0. 0. 0. 0. 0. 0. 0. 0.
      0. 1.40350882e-03 0. 0. 0. 0. 0. 7.01754412e-04 6.31578965e-03 0.
      5.61403530e-03 0. 0. 7.01754412e-04 0. 0. 3.50877200e-03
      1.40350882e-03 0. 1.40350882e-03 0. 7.01754412e-04 7.01754412e-04
      0. 0. 0. 1.26315793e-02 0. 0. 0. 7.01754412e-04 0. 4.21052659e-03
      6.31578965e-03 0. 0. 0. 0. 0. 0. 7.01754412e-04 0. 0.
      2.10526329e-03 0. 0. 0. 2.10526329e-03 0. 0. 0. 0. 0. 0. 0. 0. 0.
      1.40350882e-03 0. 1.40350882e-03 7.01754412e-04 1.40350882e-03 0.
      0. 0. 0. 4.21052659e-03 0. 0. 2.10526329e-03 0. 0. 7.01754412e-04
      0. 1.40350882e-03 7.01754412e-04 0. 0. 0. 0. 0. 0. 0. 0. 0.
      1.40350882e-03 0. 7.01754412e-04 0. 7.01754412e-04 1.40350882e-03
      7.01754412e-04 7.01754412e-04 3.50877200e-03 0. 7.01754412e-04 0.
      3.50877200e-03 0. 0. 1.40350882e-03 0. 0. 0. 0. 0. 0. 0.
      2.80701765e-03 2.80701765e-03 2.80701765e-03 0. 2.10526329e-03 0.
      0. 7.01754412e-04 0. 4.21052659e-03 0. 4.91228094e-03 0.
      1.40350882e-03 1.96491238e-02 0. 4.91228094e-03 0. 0.
      5.61403530e-03 1.12280706e-02 7.01754412e-04 0. 0. 0.
      1.40350882e-03 0. 1.40350882e-03 0. 1.05263162e-02 2.80701765e-03
      7.01754412e-04 0. 0. 0. 0. 0. 0. 7.01754412e-04 0. 0.
      2.80701765e-03 6.80701807e-02 0. 0. 7.01754412e-04 2.10526329e-03
      1.40350882e-03 0. 2.10526329e-03 0. 0. 7.01754412e-04 0. 0. 0. 0.
      0. 0. 0. 0. 0. 0. 3.01754400e-02 2.10526329e-03 0. 0. 0. 0. 0. 0.
      0. 0. 2.17543859e-02 0. 9.82456189e-03 0. 0. 0. 0. 5.61403530e-03
      0. 0. 0. 0. 0. 0. 0. 0. 0. 0. 0. 0. 1.19298249e-02 0.
      1.40350882e-03 0. 1.40350882e-03 3.50877200e-03 4.21052659e-03 0.
      0. 7.01754412e-04 0. 0. 0. 0. 1.40350882e-03 1.40350882e-03 0. 0.
      0. 0. 0. 0. 0. 7.01754412e-04 0. 0. 0. 0. 0. 0. 0. 0. 0. 0. 0.
      7.01754412e-04 0. 0. 0. 4.21052659e-03 0. 1.40350882e-03
      4.21052659e-03 1.40350882e-03 0. 3.50877200e-03 7.01754412e-04
      6.31578965e-03 0. 2.10526329e-03 0. 0. 2.59649139e-02
      9.12280753e-03 1.40350882e-03 0. 7.01754412e-04 0. 0.
      7.01754412e-04 0. 0. 0. 0. 0. 0. 1.40350882e-03 0. 0. 0. 0. 0. 0.
      0. 0. 2.80701765e-03 6.31578965e-03 0. 0. 6.31578965e-03
      2.45614052e-02 1.40350882e-03 0. 0. 7.01754412e-04 0.
      4.21052659e-03 0. 0. 4.91228094e-03 0. 0. 7.01754412e-04 0. 0.
      7.01754412e-04 3.50877200e-03 7.01754412e-04 4.21052659e-03 0.
      2.03508772e-02 2.10526329e-03 7.01754412e-04 0. 0. 7.01754412e-04
      4.21052659e-03 0. 6.31578965e-03 7.01754412e-04 0. 0. 0. 0. 0. 0.
      2.31578965e-02 0. 0. 0. 0. 0. 0. 0. 2.10526329e-03 2.80701765e-03
      7.01754412e-04 7.01754401e-03 0. 0. 0. 0. 0. 0. 0. 0. 0. 0. 0. 0.
      0. 7.01754412e-04 0. 0. 0. 0. 5.61403530e-03 2.10526329e-03 0. 0.
      7.01754412e-04 0. 7.01754412e-04 0. 0. 0. 0. 0. 0. 7.01754412e-04
      0. 0. 0. 0. 0. 0. 0.</_>
    <_>
      0. 0. 2.77238694e-04 0. 2.77238694e-04 0. 0. 0. 0. 0. 0. 0. 0.
      4.43581911e-03 0. 0. 0. 0. 0. 0. 8.31716112e-04 0. 2.21790955e-03
      0. 0. 0. 0. 0. 0. 0. 0. 0. 0. 0. 0. 0. 0. 0. 0. 8.31716112e-04 0.
      3.32686445e-03 0. 0. 0. 2.77238694e-04 0. 7.48544466e-03
      1.19212642e-02 5.26753534e-03 2.77238694e-04 5.26753534e-03 0. 0.
      2.77238694e-04 0. 0. 2.77238694e-04 0. 1.85749922e-02
      1.10895478e-03 0. 0. 0. 0. 0. 0. 2.77238694e-04 8.31716112e-04 0.
      0. 0. 2.21790955e-03 0. 1.38619344e-03 0. 0. 0. 0. 5.54477389e-04
      0. 2.21790955e-03 5.54477389e-04 0. 0. 0. 0. 2.77238694e-04 0.
      4.71305801e-03 1.35846958e-02 1.38619344e-03 0. 0. 4.99029644e-03
      0. 0. 0. 5.54477389e-04 0. 1.96839478e-02 0. 0. 0. 0.
      5.54477389e-04 0. 2.49514822e-03 0. 1.94067089e-03 0. 0. 0. 0.
      4.43581911e-03 0. 0. 0. 2.77238694e-04 0. 0. 0. 0. 2.77238688e-03
      2.21790955e-03 8.87163822e-03 0. 0. 0. 2.77238694e-04 0. 0.
      7.20820623e-03 0. 0. 0. 0. 0. 0. 0. 0. 0. 0. 5.54477389e-04 0.
      5.54477389e-04 0. 0. 0. 0. 3.07734944e-02 4.15858021e-03
      2.21790955e-03 0. 0. 0. 0. 0. 4.71305801e-03 0. 0. 5.54477389e-04
      0. 0. 0. 0. 0. 0. 5.54477389e-04 0. 1.66343222e-03 0.
      2.77238688e-03 0. 0. 0. 0. 0. 0. 8.31716112e-04 0. 0.
      5.54477389e-04 0. 0. 0. 0. 0. 1.38619344e-03 5.82201267e-03 0.
      8.59439932e-03 3.60410311e-03 0. 0. 0. 0. 0. 0. 0. 0. 0. 0. 0. 0.
      5.54477389e-04 5.54477389e-04 0. 0. 0. 0. 4.43581911e-03 0.
      2.77238694e-04 0. 8.31716112e-04 0. 0. 0. 5.26753534e-03 0.
      2.77238694e-04 0. 8.31716112e-04 0. 0. 0. 0. 0. 0. 0. 0.
      5.54477389e-04 0. 0. 0. 6.65372889e-03 0. 3.60410311e-03 0. 0. 0.
      1.10895478e-03 0. 0. 0. 2.77238688e-03 0. 1.66343222e-03 0.
      1.38619344e-03 1.94067089e-03 0. 0. 0. 2.77238694e-04 0. 0. 0. 0.
      0. 0. 1.58026051e-02 0. 0. 0. 0. 0. 0. 0. 2.77238694e-04 0. 0.
      2.77238688e-03 5.54477389e-04 0. 0. 0. 0. 0. 1.66343222e-03 0. 0.
      0. 1.10895478e-03 0. 5.54477389e-04 0. 0. 3.32686445e-03 0.
      5.54477377e-03 0. 0. 2.77238694e-04 1.10895478e-03 0. 0. 0. 0. 0.
      0. 0. 3.04962555e-03 0. 0. 0. 0. 8.31716112e-04 0. 0. 0.
      1.41391736e-02 0. 0. 0. 1.38619344e-03 0. 0. 2.49514822e-03 0.
      2.49514822e-03 0. 0. 5.54477389e-04 0. 0. 1.38619344e-03
      5.54477389e-04 8.31716112e-04 0. 4.15858021e-03 0. 0. 0. 0. 0.
      1.35846958e-02 5.54477389e-04 0. 0. 0. 1.94067089e-03 0. 0. 0. 0.
      1.05350707e-02 0. 9.70335398e-03 0. 2.77238694e-04 0. 0. 0. 0. 0.
      0. 1.94067089e-03 1.38619344e-03 0. 0. 0. 0. 4.15858021e-03 0. 0.
      0. 0. 0. 0. 0. 0. 0. 0. 0. 0. 2.77238694e-04 0. 0. 2.77238694e-04
      0. 0. 1.55253671e-02 0. 0. 5.54477389e-04 0. 8.31716112e-04 0. 0.
      3.32686445e-03 0. 0. 1.66343222e-03 0. 0. 0. 0. 2.77238694e-04 0.
      0. 0. 3.88134178e-03 0. 0. 2.77238694e-04 5.54477389e-04
      2.77238694e-04 0. 0. 0. 0. 0. 0. 0. 2.30108108e-02 0.
      2.21790955e-03 2.49514822e-03 2.77238694e-04 6.09925110e-03 0.
      5.54477389e-04 0. 0. 8.31716112e-04 1.10895478e-03 0. 0. 0. 0. 0.
      0. 0. 0. 0. 0. 0. 3.04962555e-03 4.99029644e-03 2.77238694e-04 0.
      0. 0. 0. 0. 0. 7.20820623e-03 1.10895478e-03 0. 2.77238694e-04 0.
      0. 0. 0. 2.77238694e-04 0. 6.37649000e-03 0. 0. 0. 5.54477389e-04
      0. 0. 1.66343222e-03 0. 2.77238694e-04 0. 2.77238694e-04 0. 0.
      2.77238694e-04 2.77238694e-04 0. 0. 0. 0. 0. 8.31716112e-04 0. 0.
      0. 0. 0. 0. 4.99029644e-03 0. 0. 5.82201267e-03 0. 2.77238688e-03
      0. 0. 4.43581911e-03 0. 0. 0. 0. 0. 0. 2.77238694e-04 0.
      8.31716112e-04 0. 0. 8.31716112e-04 0. 0. 0. 0. 2.77238694e-04
      3.88134178e-03 0. 0. 0. 0. 0. 0. 8.31716112e-04 0. 0.
      2.77238694e-04 0. 0. 1.94067089e-03 0. 0. 1.66343222e-03
      2.49514822e-03 0. 0. 0. 0. 0. 0. 0. 0. 0. 0. 0. 0. 8.59439969e-02
      0. 0. 2.77238694e-04 0. 8.31716112e-04 0. 2.77238694e-04
      8.31716112e-04 0. 0. 0. 4.99029644e-03 0. 0. 0. 0. 0.
      1.82977542e-02 8.31716112e-04 0. 0. 0. 0. 0. 0. 0. 1.10895475e-02
      1.38619344e-03 0. 0. 0. 2.77238694e-04 0. 0. 0. 0. 8.31716112e-04
      0. 0. 7.37454891e-02 5.54477389e-04 0. 2.77238694e-04
      2.77238694e-04 0. 2.77238694e-04 5.54477389e-04 0. 2.77238694e-04
      2.77238694e-04 2.77238694e-04 0. 2.77238694e-04 0. 0. 0. 0.
      2.77238694e-04 0. 0. 6.57055676e-02 0. 0. 1.10895478e-03 0. 0. 0.
      0. 8.31716112e-04 0. 3.16052102e-02 0. 4.15858021e-03
      1.10895478e-03 0. 0. 0. 0. 0. 3.88134178e-03 0. 0. 0.
      2.77238694e-04 0. 0. 0. 0. 0. 0. 0. 0. 2.77238694e-04 0. 0.
      2.77238694e-04 1.94067089e-03 5.54477389e-04 0. 0. 0.
      1.38619344e-03 0. 3.32686445e-03 5.65566942e-02 0. 0.
      1.10895478e-03 0. 5.54477377e-03 0. 0. 0. 2.77238694e-04 0. 0. 0.
      0. 0. 0. 2.77238694e-04 1.10895478e-03 0. 0. 0. 0. 0. 0. 0. 0. 0.
      0. 5.54477377e-03 8.59439932e-03 0. 0. 0. 0. 0. 0. 0. 0.
      7.48544466e-03 2.77238694e-04 0. 0. 0. 0. 1.94067089e-03 0. 0.
      8.31716112e-04 0. 0. 0. 1.10895478e-03 2.77238694e-04 0. 0. 0. 0.
      0. 1.38619344e-03 1.66343222e-03 0. 0. 0. 0. 2.77238694e-04 0.
      3.57637927e-02 0. 0. 0. 2.77238694e-04 0. 3.32686445e-03 0.
      1.66343222e-03 2.77238694e-04 0. 0. 0. 0. 0. 0. 1.60798449e-02
      2.49514822e-03 0. 0. 2.77238688e-03 0. 0. 0. 0. 0. 2.77238688e-03
      0. 1.16440253e-02 5.54477389e-04 0. 0. 0. 2.21790955e-03 0. 0. 0.
      0. 0. 0. 0. 0. 0. 0. 8.31716112e-04 8.87163822e-03 0.
      8.31716112e-04 0. 0. 0. 0. 0. 0. 0. 0. 0. 1.38619344e-03 0.
      2.77238694e-04 0. 2.77238694e-04 0. 0. 0. 0. 0. 8.31716112e-04
      1.10895478e-03 0. 8.31716112e-04 0. 0. 0. 0. 0. 0. 0. 0.
      4.15858021e-03 1.10895478e-03 0. 4.15858021e-03 0. 0. 0. 0.</_>
    <_>
      0. 0. 0. 0. 2.30414746e-03 0. 0. 0. 0. 0. 0. 0. 0. 4.72350232e-02
      1.15207373e-03 0. 0. 0. 0. 0. 0. 0. 1.15207373e-03 0. 0. 0. 0. 0.
      0. 0. 0. 0. 0. 0. 0. 0. 0. 0. 0. 0. 0. 0. 0. 0. 0. 0. 0.
      1.15207373e-03 1.49769587e-02 0. 0. 1.03686638e-02 0. 0. 0. 0. 0.
      0. 0. 0. 3.45622115e-02 0. 0. 3.45622119e-03 0. 0. 0. 0. 0. 0. 0.
      0. 8.06451589e-03 0. 1.15207373e-03 0. 0. 0. 0. 0. 0. 0. 0. 0. 0.
      0. 0. 0. 0. 1.15207373e-03 0. 1.95852537e-02 0. 3.45622119e-03 0.
      0. 0. 0. 1.15207373e-03 0. 3.45622119e-03 0. 0. 1.15207373e-03
      1.15207373e-03 0. 0. 1.15207373e-03 0. 0. 0. 0. 0. 1.15207373e-03
      2.30414746e-03 0. 0. 0. 0. 0. 0. 0. 1.15207373e-03 0.
      5.76036889e-03 0. 0. 0. 0. 0. 3.45622119e-03 0. 3.45622119e-03 0.
      0. 0. 0. 0. 5.76036889e-03 2.30414746e-03 8.06451589e-03 0. 0. 0.
      0. 0. 0. 0. 0. 0. 0. 6.91244239e-03 8.06451589e-03 0. 0. 0. 0. 0.
      0. 0. 0. 0. 0. 0. 2.30414746e-03 0. 0. 0. 0. 0. 0. 0.
      2.30414746e-03 0. 0. 0. 2.53456216e-02 1.15207373e-03 0. 0. 0.
      3.45622119e-03 0. 0. 0. 0. 0. 0. 2.30414746e-03 4.60829493e-03 0.
      0. 0. 0. 0. 0. 0. 0. 0. 2.30414746e-03 0. 0. 3.45622119e-03 0. 0.
      0. 4.60829493e-03 0. 0. 0. 1.15207373e-03 1.15207373e-03 0. 0. 0.
      1.15207373e-03 0. 0. 0. 0. 0. 0. 0. 0. 0. 0. 0. 4.60829493e-03
      1.15207373e-03 0. 0. 0. 0. 0. 0. 0. 0. 0. 0. 0. 0. 0. 0. 0. 0. 0.
      0. 0. 0. 0. 0. 0. 0. 0. 0. 0. 0. 0. 1.15207373e-03 0. 0. 0. 0. 0.
      0. 0. 0. 0. 0. 2.30414746e-03 0. 0. 0. 3.45622119e-03
      2.30414746e-03 0. 0. 0. 0. 0. 1.15207373e-03 1.15207373e-03 0. 0.
      0. 0. 0. 0. 0. 0. 0. 0. 0. 0. 0. 0. 0. 1.15207373e-03 0. 0. 0. 0.
      4.60829493e-03 0. 0. 0. 0. 0. 3.45622119e-03 1.15207373e-03 0. 0.
      1.26728108e-02 0. 0. 0. 0. 0. 0. 0. 0. 0. 4.60829493e-03 0.
      3.45622119e-03 0. 0. 9.21658985e-03 0. 3.45622119e-03 0. 0. 0. 0.
      0. 0. 0. 0. 0. 1.15207373e-03 0. 1.15207373e-03 0. 0. 0.
      8.06451589e-03 0. 5.76036889e-03 0. 0. 0. 0. 4.60829493e-03
      3.22580636e-02 0. 0. 0. 0. 1.03686638e-02 0. 0. 0. 0. 0. 0. 0. 0.
      0. 0. 0. 0. 0. 0. 4.60829493e-03 0. 0. 0. 0. 0. 0. 0. 0. 0.
      1.84331797e-02 0. 3.45622119e-03 0. 0. 1.15207373e-03 0. 0. 0. 0.
      0. 0. 0. 5.76036889e-03 0. 0. 1.95852537e-02 0. 0. 0.
      1.03686638e-02 0. 0. 0. 0. 1.15207373e-03 0. 0. 0. 0. 0. 0. 0. 0.
      4.60829493e-03 0. 0. 0. 0. 0. 0. 0. 0. 0. 0. 0. 0. 0. 0. 0. 0. 0.
      4.60829493e-03 0. 0. 0. 5.76036889e-03 9.21658985e-03 0.
      2.30414746e-03 0. 0. 0. 0. 0. 1.15207373e-03 0. 8.06451589e-03 0.
      0. 0. 0. 0. 0. 0. 2.30414756e-02 2.18894016e-02 0. 0. 0. 0. 0.
      3.45622119e-03 0. 0. 0. 9.21658985e-03 0. 0. 0. 0. 4.60829493e-03
      0. 0. 4.60829493e-03 0. 0. 0. 0. 0. 8.06451589e-03 0. 0. 0. 0. 0.
      0. 0. 0. 0. 1.15207373e-03 0. 0. 0. 1.15207373e-03 0. 0. 0. 0. 0.
      0. 3.45622119e-03 0. 1.15207373e-03 0. 0. 0. 4.60829493e-03 0.
      1.15207373e-03 0. 2.30414746e-03 0. 0. 0. 0. 0. 0. 0. 0.
      1.15207373e-03 0. 0. 1.15207373e-03 0. 1.49769587e-02 0.
      8.06451589e-03 0. 0. 0. 0. 0. 0. 0. 3.45622119e-03 0.
      8.06451589e-03 0. 2.76497696e-02 0. 0. 0. 0. 0. 4.60829493e-03 0.
      0. 0. 0. 2.30414746e-03 0. 1.15207373e-03 0. 0. 0. 0. 0. 0. 0. 0.
      0. 0. 0. 0. 0. 0. 0. 0. 0. 0. 0. 0. 0. 0. 0. 3.45622119e-03 0. 0.
      3.45622119e-03 0. 0. 0. 0. 0. 1.15207373e-03 0. 0. 0. 0. 0. 0. 0.
      0. 0. 0. 0. 0. 0. 0. 0. 0. 0. 0. 0. 0. 0. 3.45622119e-03 0. 0.
      1.15207373e-03 0. 1.15207373e-03 0. 0. 0. 0. 0. 0. 0. 0. 0. 0. 0.
      0. 0. 0. 0. 0. 0. 1.15207373e-03 0. 0. 0. 2.76497696e-02
      5.76036889e-03 0. 0. 0. 0. 0. 0. 0. 0. 2.99539175e-02 0. 0.
      1.00230418e-01 0. 0. 0. 1.15207373e-03 5.76036889e-03 0. 0. 0. 0.
